1720 100
the -0.031509366 0.0004131532 -0.006233175 -0.00011859405 -0.019180618 0.012117042 -0.04019502 -0.006805371 0.045612495 0.009709495 0.0120051 -0.015511174 -0.04563039 0.060268905 0.013658331 0.05296416 0.029691936 0.008065926 0.048889782 -0.0033934743 -0.010961162 0.011929015 0.00864105 -0.020804508 0.05548185 0.0296402 0.017845783 -0.0039024649 -0.00064344273 0.0306656 -0.055734545 0.011414382 0.020180212 0.022802506 -0.0040035853 -0.033530157 0.026535098 -0.004680212 -0.0056868484 -0.01855175 0.02173291 -0.05150996 -0.071581356 0.053761248 0.010367964 -0.012620365 -0.017898403 -0.01914041 -0.0055213594 -0.04167206 -0.030508116 0.016358694 0.0005009558 0.001802906 0.03559673 0.027672032 0.010339438 -0.0061207395 -0.02344817 -0.014571727 0.01902151 0.007295634 -0.017631201 -0.017453885 0.00331504 -0.022077333 0.022394743 0.005604764 -0.016248932 0.03224825 0.015060426 -0.007301485 0.026651885 -0.008698789 0.020773072 0.022715572 0.032212913 0.008907313 0.0020140035 -0.038643505 0.00021060799 0.00096983206 -0.05445505 0.014319179 -0.0061507914 0.015036406 0.0045142793 -0.02315516 -0.011210231 0.009646623 -0.047898635 0.004992609 0.0005237941 -0.028012509 -0.0022060936 0.04654943 0.01894725 -0.033918902 0.008263843 0.00582859
to -0.024519185 0.0019430608 -0.0049648914 -0.0020983322 -0.01982881 0.013860412 -0.0371132 0.0011303389 0.052129358 0.014819973 0.010268293 -0.0165059 -0.043797724 0.059052415 0.009622041 0.06152724 0.03331588 -0.00016396037 0.04683922 -0.011810781 -0.006365422 0.0046631494 0.0049991957 -0.02554437 0.061142538 0.02928435 0.02120611 -0.009475192 0.009106224 0.026728671 -0.056940686 0.011989713 0.023570435 0.024892522 -0.005804656 -0.03502283 0.027952809 -0.009440523 -0.008251009 -0.0142916385 0.017721966 -0.043669943 -0.076289386 0.05579705 0.01917474 -0.01567654 -0.017773282 -0.021460027 -0.009040019 -0.04483975 -0.032506734 0.016829478 0.0046023186 0.0049553216 0.032958265 0.027760122 0.0020745704 -0.007132902 -0.026808972 -0.014082015 0.020985391 0.0069371886 -0.01342676 -0.023711665 0.004088515 -0.01565751 0.025991678 0.012782968 -0.012788923 0.028695919 0.016195254 -0.004800471 0.023780134 -0.007112213 0.02509083 0.017460443 0.02974006 0.012577865 0.0011400774 -0.043465253 0.0027583067 -0.0034032715 -0.054583307 0.018081635 -0.009714183 0.013360247 0.008849128 -0.015895018 -0.0036097448 0.0061487914 -0.045325484 0.008309619 -0.0058886553 -0.025923157 -0.0012951057 0.050796114 0.01863398 -0.034420405 0.01344114 0.013196257
of -0.024044754 -0.00260744 -0.0049661133 0.0040521957 -0.015938234 0.0069513503 -0.029260242 -0.00016542013 0.03473992 0.009366846 0.008721816 -0.014763483 -0.028059369 0.03852991 0.007351065 0.04273012 0.024859335 0.0032786855 0.032571346 -0.0024211025 -0.0084477775 0.0037929695 -0.00068345154 -0.015100321 0.033082005 0.014100987 0.010298096 3.142179e-05 0.002098724 0.02160311 -0.03627453 0.01273502 0.022321291 0.019732622 -0.0013786798 -0.019690277 0.018176015 -0.0043081716 0.0014200943 -0.010258783 0.01064049 -0.036723975 -0.050916553 0.03283487 0.012735292 -0.00761775 -0.005932957 -0.00785895 -0.0062981443 -0.026004303 -0.021761645 0.0070954124 -0.003826483 0.0062743537 0.02591766 0.022262163 0.0041495403 -0.009684529 -0.01983164 -0.0038640334 0.012327242 0.008482317 -0.009195181 -0.009113215 -0.0013935664 -0.013740168 0.021907056 0.0035353627 -0.009985851 0.024428157 0.0029483677 -0.005143013 0.016318789 -0.0040737162 0.01441115 0.013301029 0.023958357 0.0045655607 0.00062538043 -0.032168515 0.0028829512 -0.0010429644 -0.038201895 0.015787445 -0.0012176717 0.0075987605 -0.0010236844 -0.016272483 -0.00940962 0.003815496 -0.033685766 -0.0028952279 0.003633101 -0.021724492 -0.004936549 0.033831805 0.017574303 -0.02566274 0.008539895 0.00195465
and -0.02442103 -0.0040255035 -0.0010785663 0.00073101075 -0.017241176 0.013122243 -0.027367242 -0.007307478 0.03713953 0.010806752 0.011140374 -0.013784319 -0.03660845 0.04351969 0.009179695 0.050281703 0.024697479 -0.0010086583 0.034795173 -0.011308275 -0.0016891345 0.008753433 0.007600742 -0.021758402 0.044948775 0.019203968 0.021755505 -0.008579618 0.00094262976 0.025817852 -0.039092604 0.011956542 0.022728164 0.018432653 -0.00012236777 -0.027613169 0.02040363 -0.0059549557 -0.0005116748 -0.017246569 0.015993468 -0.040614408 -0.06060823 0.043319523 0.0072532124 -0.015540309 -0.014882986 -0.009620102 -0.0054897545 -0.03623514 -0.030620866 0.008208636 0.001301201 0.0004265026 0.024229689 0.020054014 0.0064328727 -0.008770789 -0.020388125 -0.01256608 0.015723089 0.008920177 -0.014920663 -0.012640403 0.0014150788 -0.0118355565 0.016903248 0.012448883 -0.007862882 0.023137275 0.005625917 -0.0014972875 0.014466227 -0.0063092005 0.017607955 0.01463022 0.021729646 0.005663363 0.002716773 -0.036952563 0.0020603794 -0.0025426159 -0.040330753 0.014015397 -0.010103209 0.007118635 -0.0013849323 -0.021231286 -0.0056148265 0.0027439133 -0.03600625 0.0055459877 -0.00019478919 -0.02777781 -0.0050444445 0.0413494 0.019109748 -0.03271975 0.002975774 0.011466133
in -0.022347493 -0.0012226833 -0.0029151815 -9.586071e-05 -0.018693198 0.0055647604 -0.02303294 -0.0029294197 0.034167264 0.012454892 0.0032317003 -0.010559309 -0.026903162 0.04065958 0.003142951 0.035149164 0.026498111 0.00581063 0.03372678 -0.010292159 9.3657145e-05 0.001108725 -0.0014183274 -0.016510144 0.039717726 0.01698679 0.015842209 -0.0012479078 -7.689943e-05 0.021535106 -0.03425387 0.006144622 0.020786284 0.020356486 0.0019790744 -0.02709651 0.023726104 -0.0013933944 -0.008166746 -0.012733501 0.010730427 -0.03386828 -0.054185513 0.039146822 0.007956365 -0.00931055 -0.009652895 -0.007574148 -0.00060597603 -0.028021831 -0.02360209 0.0070194365 -0.00024510236 0.006019732 0.025343321 0.020649213 0.0008942424 -0.006349682 -0.013633725 -0.0053254915 0.017345855 0.011876465 -0.009031711 -0.015407899 0.0004969723 -0.012711259 0.023436163 0.010541254 -0.008119075 0.015064069 0.009791757 -0.007228531 0.017781414 -0.0062540136 0.013732757 0.008567899 0.023573702 0.0013709776 4.186221e-05 -0.030743489 0.0017629002 -0.00038958207 -0.03549026 0.016201358 -0.0009779709 0.0034830684 0.004389741 -0.011790997 -0.007876927 -0.0008363715 -0.029939776 -0.0003485808 0.0011375343 -0.018051464 -0.007358705 0.034518346 0.009328388 -0.022882633 0.0099659 0.0059196833
a -0.016914884 -0.0056464095 0.002956517 0.00027472834 -0.016090553 0.0060913046 -0.01928564 -0.0025253063 0.034017436 0.012876495 0.005340531 -0.015214062 -0.024250783 0.03522538 0.0063680643 0.039897677 0.020347068 -0.0021023122 0.030122085 -0.00594246 0.00031505775 0.00408545 0.0043572006 -0.013002511 0.03759508 0.014483338 0.014520867 -0.0024326262 0.006120663 0.022757484 -0.029690908 0.00457491 0.013431694 0.020080442 -0.0050582415 -0.019084642 0.022021187 -0.004164166 -0.0063780625 -0.013232895 0.014170341 -0.03009169 -0.0464295 0.035757687 0.009202589 -0.012082281 -0.009858583 -0.00963212 -0.0022492616 -0.024698354 -0.023247685 0.01149131 -0.0025496394 0.00082079903 0.017015161 0.020398883 -0.0011396876 -0.001528897 -0.01863184 -0.0035049755 0.008224704 0.009628775 -0.012796993 -0.01154135 0.005382438 -0.01591161 0.018153187 0.0028260765 -0.005469628 0.018020576 0.011781421 -0.0022126294 0.015072413 -0.001385959 0.010881126 0.014850776 0.019603115 0.0067881215 -0.00036309188 -0.02496409 0.0036975488 0.0033570211 -0.03567936 0.0078013353 -0.004160366 0.007978529 0.0056398143 -0.016054548 -0.0026112588 0.0072890096 -0.028238863 0.0064817728 -0.0007311115 -0.0221079 -0.00709671 0.02917623 0.016789174 -0.024136987 0.0027406993 0.01030015
for -0.015776336 0.0013421718 -0.0015520315 0.0027555665 -0.012517253 0.008955592 -0.016665762 0.0004995843 0.024310512 0.009010346 0.0017480056 -0.0041943956 -0.016377838 0.027746908 0.007949555 0.027777296 0.017563518 -0.0032229067 0.016721288 -0.0037716303 0.00023376798 0.002377278 0.0016899962 -0.01138339 0.028658517 0.014719656 0.012685104 0.0019100124 -0.00033446154 0.010968951 -0.023581937 0.009422985 0.0136081325 0.015556408 0.003371178 -0.01912206 0.012212109 -0.0048676576 -0.0060906224 -0.011821902 0.0033422892 -0.019836525 -0.03193424 0.021259187 0.0033007045 -0.003269832 -0.004567428 -0.010129394 0.00071231544 -0.021046417 -0.020613844 0.011383657 -0.0027854952 0.003202804 0.015206376 0.0106042195 0.00543857 0.00031020187 -0.0152875995 -0.001219308 0.0045453105 0.0014332039 -0.006119776 -0.009058811 -0.0035949582 -0.012140458 0.017261457 0.0037469105 -0.0054441 0.013997904 0.0040510097 -0.0021518501 0.008442565 -0.0038069529 0.013899684 0.012483669 0.009361669 0.003773649 0.0059457836 -0.022397613 0.0022216183 -0.0022924333 -0.024844194 0.009200859 -0.0037490074 0.010134162 0.0036550295 -0.008751726 0.0006977431 0.0018456475 -0.020359315 -0.0032817437 -0.0056105047 -0.01648048 -0.0057882243 0.023126155 0.013578744 -0.018753465 0.008642475 0.0006042165
that -0.01219694 -0.0054237046 -0.00059748814 0.0035894166 -0.009334202 0.009471639 -0.023839017 0.0018065324 0.025486013 0.010547013 0.0007859502 -0.013487949 -0.024596455 0.028268652 0.0021375383 0.03333922 0.021436233 -0.0008229875 0.025149627 0.00036514248 -0.006589931 0.005325483 -0.0005857916 -0.014672241 0.0351607 0.01343578 0.016826482 -0.0037297413 0.0051792264 0.01110047 -0.03460628 0.0103302905 0.015855946 0.017706562 -0.0064901654 -0.020258756 0.016430669 -0.0016083587 -0.002400673 -0.0058275955 0.005604504 -0.02410567 -0.04193141 0.03348867 0.007488237 -0.014272817 -0.014288091 -0.014092799 -0.0027870084 -0.023103718 -0.021851094 0.0038722442 0.0032307543 -0.00074474316 0.014829788 0.019895967 0.004066149 -0.009521656 -0.012153088 -0.00611011 0.008163702 0.0036412256 -0.009656967 -0.015403591 -0.0037388229 -0.008034715 0.019097375 0.0030045924 -0.0073823966 0.014812318 0.0045698914 -0.00085618166 0.010833817 -0.006058018 0.010324903 0.008848664 0.016487464 0.005734112 0.0016309397 -0.02505113 -0.0018932327 -0.0006707222 -0.030209595 0.010652089 -0.007851222 0.010535649 -0.0002809338 -0.013883072 -0.000963768 6.37119e-05 -0.026770774 -0.0011678512 0.004037077 -0.019496553 0.0018665292 0.029516706 0.011351954 -0.025686836 0.001696792 0.0004399626
was -0.012158272 -0.001713255 0.0012609146 0.002628028 -0.008600417 0.0066073905 -0.021003276 -0.0012474662 0.026429474 0.0044680457 0.0066888765 -0.010417144 -0.01584076 0.030846106 -0.0007630823 0.03064644 0.011809208 -0.0028952647 0.025702119 0.00090974174 0.0013117733 0.0034949174 0.004310965 -0.007618196 0.027886033 0.01693794 0.009519322 -0.0018717606 0.005085567 0.018076766 -0.02459143 0.0023432828 0.014635129 0.0112036485 5.571749e-05 -0.01474657 0.014126828 -0.0046250178 0.0024239938 -0.004556305 0.012547021 -0.019644625 -0.038707823 0.024760442 0.010853115 -0.009971491 -0.00891255 -0.011593574 -0.008011193 -0.014854348 -0.017776607 0.0064786267 -0.0012718482 0.0040660356 0.015196714 0.01862806 0.005534795 -0.0064337035 -0.011928003 -0.005843574 0.007821746 0.0029160003 -0.0020050083 -0.007917791 0.0017618721 -0.012162775 0.01247352 0.0099610435 -0.0029738296 0.016891545 0.010368236 -0.0059798346 0.013710689 -0.0023367254 0.009766786 0.006328028 0.01829286 0.0030057828 -0.0035999904 -0.022175226 -0.0012815035 0.00068195304 -0.029406102 0.0060033747 0.0010763374 0.0048115025 0.003806286 -0.0060624466 -0.0059534702 0.0068454747 -0.022624742 -0.0018086955 -0.00042943325 -0.009166869 0.0017661928 0.024189413 0.0042952984 -0.02049329 0.0070837867 0.002614444
on -0.018639708 -0.0032644721 -0.0027737438 -0.00337435 -0.014111243 0.0032830024 -0.025981601 0.0026226658 0.030295907 0.009916723 0.0066523086 -0.005605484 -0.025359195 0.028692646 0.004302338 0.036979824 0.01381797 0.0009753407 0.0259176 -0.0076995497 -0.0056347577 -0.0009480527 -0.00015157636 -0.008484312 0.030018384 0.0146212755 0.009793683 -0.0002475714 0.003760263 0.012910774 -0.025496237 0.010381235 0.017851653 0.015247721 -0.0010740873 -0.024741257 0.012387553 -0.001406184 -0.0058640623 -0.008756033 0.008723948 -0.027421841 -0.038070004 0.033733334 0.0069400137 -0.0129139805 -0.013653114 -0.00513201 -0.0003676738 -0.025432047 -0.020008884 0.010043108 0.004181489 0.002209473 0.0185715 0.016335104 0.0054574995 -0.009094968 -0.019222684 -0.010245269 0.011078788 0.0063774334 -0.007787145 -0.0152495075 -0.003201844 -0.010701732 0.014144903 0.005996219 -0.00509123 0.013763859 0.0025861787 -0.0060263257 0.010059752 -0.004556537 0.011478896 0.0078475755 0.015882943 0.0072175935 0.003849002 -0.027039876 -0.0026982483 0.003108458 -0.031398192 0.010421848 -0.0015570392 0.0106012495 0.0025453882 -0.015684836 -0.0075110835 0.0055717966 -0.021127747 -0.0018260401 0.0006948291 -0.017191203 -0.0016979743 0.03172337 0.012564084 -0.024022643 0.0019303092 0.008803519
with -0.019227464 -0.0020751345 -0.0052623935 -0.0027362148 -0.011647705 0.005095027 -0.022174649 0.0019248332 0.022723518 0.0023802223 0.009464539 -0.011037777 -0.024154572 0.028226478 0.006938159 0.031672824 0.019572599 -0.00015527422 0.020848555 -0.008211492 -0.0035978192 0.003956855 0.0019281099 -0.014128877 0.030047186 0.011517736 0.009308714 -0.000884211 0.0068525034 0.018326242 -0.029463043 0.0058876663 0.014393749 0.0083675785 -0.0035334153 -0.013018542 0.01784535 -0.0072512077 0.00070193474 -0.009726287 0.00795202 -0.021733884 -0.038670413 0.0225169 0.004120874 -0.012962193 -0.010334875 -0.00666749 -0.0013265412 -0.022457918 -0.016565662 0.008009412 -0.0018512871 0.0015410853 0.011941202 0.012142562 0.0004763112 -0.0040589212 -0.010575091 -0.005763127 0.01433808 0.00769671 -0.009160459 -0.012381594 0.0027724295 -0.0144887 0.011362963 0.0028175295 -0.007781135 0.01305093 0.0006662765 -0.00025729637 0.008321713 0.0019854205 0.007858628 0.006577973 0.01539241 0.003389208 0.0064398637 -0.019383522 0.0028892176 0.0018435683 -0.020582298 0.01010712 -0.0088112755 0.0029584232 -0.0007236623 -0.0085211275 -0.0073689907 -0.00015114136 -0.023523096 0.0056295977 -0.0024407557 -0.014644529 -0.0051588733 0.02896475 0.009896649 -0.01838137 0.0010752901 0.007160991
he -0.010861423 -0.0016320297 0.0004785729 0.0014304335 -0.0061186193 0.0038023153 -0.0055911974 -0.004842119 0.0072771227 0.0001381376 0.0023575663 0.00015499891 -0.009982151 0.013285218 0.0019629442 0.008751211 0.007985796 -0.0014795926 0.014633021 -0.0050041866 0.0014882142 0.006390355 -0.0005047885 -0.006801775 0.015170478 0.0022655071 0.0043934467 0.002129603 0.005083429 0.0034734993 -0.01384282 0.0042675296 0.00834551 0.002304824 0.00032055768 -0.007597401 0.010803702 0.00087492174 -0.00020624037 0.0010674209 0.0028025038 -0.008283114 -0.021207914 0.0075474833 0.0035324227 -0.0039405897 -0.0004288929 -0.008870162 -0.0012207284 -0.011889264 -0.0073080612 0.006967351 -0.0017002188 0.0042241006 0.009067617 0.0051400815 -0.0009245895 -0.0015663031 -0.0064500365 -0.0021897014 0.005910138 0.0016981943 0.00066889427 -0.0048423754 -0.0042922995 -0.005139498 0.0109142475 -0.00073245115 -0.006395531 0.008881096 0.0024166252 -0.0006140495 0.0045285104 0.001887694 0.008148888 0.008738272 0.009087647 -0.00163224 0.004905791 -0.008860472 0.003922842 -0.0032842355 -0.01652789 0.0024022956 0.0004757001 0.0043280125 0.0026812674 -0.0074402303 -0.0028927168 0.002333559 -0.012402628 -0.0005778967 0.0018696468 -0.0075707813 -0.0020433385 0.01565381 0.0062670787 -0.009035048 0.0015542083 0.00016548453
his -0.011938937 -0.0055211037 0.0036570304 -0.0019682422 -0.009880845 -0.00057579856 -0.011274907 -0.0060495054 0.01790552 0.001541215 -0.0002675012 -0.0108368825 -0.015567208 0.02074235 0.003660901 0.022528823 0.006633834 0.003887317 0.015531406 -0.0065086195 0.00057364354 0.0031633528 0.00401256 -0.002424094 0.019770892 0.009385448 0.010314726 -0.005049665 0.0007891863 0.004152602 -0.018552072 0.0063304272 0.012289668 0.006612583 -0.005365079 -0.011312721 0.011557842 -0.00044332308 0.0038031184 -0.009318339 0.0011015545 -0.015368144 -0.028051052 0.019039845 0.0022680114 -0.010464033 -0.0059671854 -0.0072365296 0.0010944853 -0.008837792 -0.010054018 0.007717552 0.00010766802 0.0025016281 0.013770377 0.008432524 0.0001257756 -0.002317766 -0.010735794 -0.0036010784 0.0110510895 0.008061647 -0.0027678262 -0.003790867 0.0055249943 -0.00845755 0.012538617 0.0029538341 -0.008034887 0.008921061 0.0058903876 -0.0043898486 0.0073273727 0.0010188963 0.008218927 0.00502148 0.013494537 0.0052114124 0.0029234742 -0.00858982 -0.0035987615 0.00058864756 -0.020909086 0.0017008857 -0.0038629728 0.003953474 0.0020412246 -0.006628964 0.00027887773 0.0043490394 -0.019175805 -0.002571335 -0.005178752 -0.012201749 -0.0038427184 0.017609617 0.009215729 -0.0124164 0.0075935093 0.00109833
has -0.008361273 0.0033780034 -0.005522162 -0.0033744231 -0.008187036 0.00874346 -0.014216921 0.0019901136 0.01660227 0.0015775057 0.0010635795 -0.007603227 -0.01610078 0.023360921 0.0046563 0.027548647 0.017711228 -0.0012711906 0.020576123 -0.004247098 -0.0011019928 0.0071074297 0.0061537824 -0.011047492 0.029147679 0.0070246207 0.0087352805 -0.0016614019 -0.00088122976 0.016060418 -0.024214346 0.003224365 0.014759026 0.009484433 0.00058624824 -0.020748792 0.017828124 0.0025292125 -0.0030632275 -0.0072671873 0.009681857 -0.019125564 -0.03463798 0.025731841 0.011413838 -0.010186784 -0.01164607 -0.008047391 -0.006902874 -0.012885159 -0.017133418 0.0055057686 0.0045871143 -0.0022815862 0.015665457 0.008377542 0.00085841934 -0.0084156785 -0.008772139 -0.008615806 0.007838412 0.008288834 -0.0040352386 -0.012542379 -0.0024723725 -0.0045304247 0.00959852 0.0008132844 -0.007840825 0.012418433 0.0076760165 -0.0077960086 0.013140443 -0.005010475 0.013878756 0.013209279 0.013172483 0.007597605 0.00051568146 -0.022426192 0.0052694357 -0.0010282653 -0.021393448 0.0099553475 -0.0014555551 0.0062455665 0.0063791457 -0.009734941 -0.0012714932 -0.0009425285 -0.016910622 0.0050354875 0.00094097026 -0.013095777 0.0007316112 0.017977802 0.012664503 -0.01530087 0.0074185897 -0.0007927001
have -0.010023547 0.0011829952 -0.00013890743 0.00034833426 -0.014102481 0.0059163054 -0.016889734 -0.0014449069 0.022925664 0.009061536 0.002542116 -0.0050105285 -0.016934974 0.028596494 0.0040960475 0.02231345 0.019025004 0.004165216 0.02429227 -0.007607648 0.0013949898 0.0029368214 -0.0028851628 -0.010457081 0.025916908 0.013923711 0.011704996 -0.0069962237 0.0039786105 0.0106438575 -0.022508357 0.0052774576 0.0101917805 0.012119734 -0.0045397584 -0.015122919 0.010044581 -0.0019472349 -0.004501874 -0.0047276784 0.00271504 -0.01645573 -0.029626505 0.020729553 0.0077419705 -0.003464004 -0.011882613 -0.0091334935 -0.00014342018 -0.018263226 -0.018170703 0.0019379696 0.0036313261 0.00032384484 0.017288879 0.01634552 0.0045217103 -0.009287593 -0.00805963 -0.00077108416 0.0040973886 0.0025096324 -0.010371004 -0.0048065544 0.00082151144 -0.013601154 0.014777429 0.009417661 -0.010171992 0.009873468 0.009753006 0.0016421808 0.009597044 0.0019703656 0.007183797 0.0069114384 0.007848746 0.0003661932 0.0062728217 -0.016235428 0.0030359093 -0.0006683823 -0.026486928 0.0060304273 -0.0006781305 0.0066751717 0.0028504431 -0.008480299 -0.0031736745 0.0007344067 -0.020356104 -0.00077226287 0.0024193516 -0.0097210985 -0.0039958456 0.025939142 0.010162627 -0.01574259 -0.00040868946 0.0021996398
as -0.013302618 0.0028495311 0.000103430466 0.003877137 -0.00997431 0.009727612 -0.023505451 -0.0012855923 0.024581952 0.0062272656 0.0052509336 -0.011653218 -0.027610738 0.037885517 0.002755456 0.039375264 0.024412503 0.0039469656 0.027763138 -0.004899112 -0.005545205 0.0005164756 0.004594809 -0.011305839 0.039511934 0.011543479 0.007998723 -0.00415476 -8.26502e-05 0.020960258 -0.035744403 0.010732788 0.012450834 0.017483313 -0.0016504424 -0.01765255 0.0144625185 -0.004572596 -0.004696979 -0.006087897 0.0122365635 -0.026989896 -0.04548201 0.02762067 0.009375202 -0.010612478 -0.011048613 -0.013686307 -0.004940531 -0.028725801 -0.020249438 0.009068807 0.0047878507 -0.0020100963 0.024497773 0.015965976 0.0029026768 -0.006385521 -0.0199119 -0.006416045 0.013088976 0.006333717 -0.011337599 -0.01461356 -0.0024038905 -0.013809436 0.019315915 0.007627183 -0.0062311017 0.016328271 0.011263381 -0.009388247 0.009595836 -0.0067356923 0.014856477 0.0114876935 0.014592557 0.006297165 0.0022072352 -0.029287329 -0.0013406747 0.0028809994 -0.03276477 0.0083195325 -0.0043265503 0.004573711 0.0015109715 -0.00928283 -0.0049245376 0.0022997416 -0.025228957 0.0020469404 0.0034070895 -0.014134133 -0.0019874566 0.02776358 0.008523933 -0.024022726 0.006523095 0.010368348
is -0.017855698 -0.0016621371 -0.0011678241 -0.0033259643 -0.006110819 0.0041114073 -0.015518028 -0.0030325025 0.017350063 0.009868083 0.00798478 -0.0035592145 -0.022082375 0.02470663 0.002549289 0.02819195 0.013891346 0.006067395 0.019865189 -0.007676793 0.0012618828 0.0047403798 0.0033128767 -0.011998519 0.02927949 0.011845211 0.009220433 -0.00064142194 0.0032354773 0.008479279 -0.022628238 0.002255739 0.01176462 0.010821267 -0.0039661634 -0.013758125 0.011081387 -0.0038410893 0.0027317586 -0.006409269 0.003788699 -0.019290524 -0.031925935 0.018487686 0.010382135 -0.008189 -0.0025649325 -0.01104709 -0.003999482 -0.01490416 -0.012612117 0.008055365 0.0037158662 0.00341885 0.012318248 0.014641997 -0.0006218163 -0.0051998873 -0.011417065 -0.005367287 0.013405324 0.001591082 -0.0016053197 -0.0049916813 -0.004409445 -0.009809409 0.016351476 0.007662451 -0.0077412995 0.008918584 0.006462151 -0.00014913728 0.011032901 -0.006800362 0.007340709 0.0060611614 0.009636977 0.0028811016 0.0035423718 -0.01715814 0.004459097 -0.0020153746 -0.018069232 0.007358029 -2.519654e-05 0.005465846 -0.0018126413 -0.012727365 -0.0050754477 8.383449e-05 -0.023527877 -0.0017117868 0.0028802438 -0.012533193 -0.001800542 0.023531755 0.0052006636 -0.014956672 0.0062860996 0.003135293
johnson -0.0025389637 0.0040235417 -0.000547223 -0.004063566 -0.0031136372 -0.0005777757 -0.009442041 0.0003199422 0.009699616 -0.0019243222 0.005845915 -0.0017510424 -0.010071299 0.016835855 0.003778105 0.01523719 0.0057851034 0.0022122846 0.006229539 -0.0012852672 -0.00266564 0.0015423772 -0.0038395105 -0.008289924 0.015324945 0.0023918382 0.001498504 0.000834063 -0.001440642 0.0018583641 -0.0118176835 0.0076730684 0.0043758918 0.0069286344 -0.0013015489 -0.010186698 0.008727193 -0.0014348895 -0.004928842 -0.0031919882 0.008024007 -0.014167324 -0.01721948 0.015568618 0.007877659 -0.0012721356 -0.0076930653 -0.0043193786 0.00088515494 -0.01083447 -0.012115417 0.006437462 -0.0044026487 0.0051236963 0.011044634 0.0086157555 0.00042878432 0.0008169798 -0.0051608495 -0.005949531 0.0061521986 0.005816974 -0.0046899975 -0.0063301316 -0.0036209763 -0.0014023051 0.008100317 0.0067393207 -0.007147518 0.002021475 0.0033457915 0.0032369003 0.006718527 0.0007329574 0.0056515676 0.0061432333 0.007827465 0.0023654546 0.0042082043 -0.009265769 0.0030021393 -0.0044968296 -0.008303287 0.0056453976 -0.00019042932 -0.00041650183 -0.0036767088 -0.0052390713 -0.0007113759 -0.00059622386 -0.0074003213 0.004226409 0.0019218372 -0.0033386366 0.0033083097 0.008231725 0.0006343682 -0.004375103 0.0045632767 0.002475177
but -0.013318954 -0.0029158257 -0.002612983 0.0027698006 -0.011140698 0.0036727784 -0.012432179 0.0007230446 0.016586658 0.007466427 0.0038983282 -0.0052263616 -0.016061576 0.022098564 0.002589909 0.01850891 0.010335814 0.0013989919 0.011685039 0.0018302173 -0.0059306864 0.0069066826 0.0036292775 -0.00835918 0.0147541305 0.012776341 0.0062222113 -0.005075622 0.0031367082 0.0105696535 -0.018889882 0.005008566 0.010428425 0.0048036203 -0.0055173635 -0.01138616 0.0055233384 -0.0037309183 -0.000843116 -0.009930119 0.008365833 -0.013643765 -0.024993863 0.010975641 0.0053357203 -0.007920959 -0.007814405 -0.009292011 -0.0054044984 -0.007706036 -0.013572405 0.00038016794 -5.118106e-05 0.0004910869 0.01484828 0.004330347 -0.000864761 0.0016568643 -0.0033493745 -0.0060938676 0.0015424573 0.007007315 -0.0048361984 -0.005309369 -0.00266853 -0.004421675 0.0036434361 0.0045034206 -0.0032612095 0.011743575 0.005016457 0.0013089083 0.006010513 -0.002673652 0.010588608 0.001727389 0.009945615 0.003629502 0.0024966546 -0.010146882 0.0046981145 0.003657772 -0.014965044 0.0029509682 -0.00330009 0.004727324 -0.0005687912 -0.006846698 -0.003357433 0.0018130111 -0.011953308 0.00016880297 0.0012259852 -0.0065614358 0.0022849129 0.013510349 0.0017102084 -0.0070538847 0.00020934745 0.0058952365
mr -0.0041032084 0.003044296 0.004232995 0.0008708467 7.477865e-05 0.0046852347 -0.004645045 -0.0048924848 0.009179688 0.0036681774 0.00036612936 -0.0064325766 -0.0063430844 0.014418274 -0.0034722167 0.011482823 0.0050126896 -0.0021484431 0.004954429 0.0017699231 -0.004647307 6.5917748e-06 0.0023840792 -0.008666719 0.0070671067 0.007737546 0.0009970558 -0.003213534 -0.00028025018 0.0013670216 -0.011641363 0.0055711083 0.0013618154 0.008231118 0.0022179415 -0.010229569 0.0024740156 0.00079013105 -0.0052814633 -0.0050096437 0.0040204627 -0.009064132 -0.012739421 0.010954057 -0.00020918094 -0.007300894 -0.007374718 -0.007160498 0.0025479863 -0.0038341295 -0.0011163685 0.0016160323 0.0004779088 0.0040524285 0.009982501 0.0009194002 -0.002991449 -0.0030946017 -0.005897274 0.0018929158 0.0070260055 0.00031075752 -0.0050540636 -0.003893479 0.0013737982 -0.0017945969 0.0053523295 0.005640815 -0.00396553 0.003840126 0.006067875 -0.0019872368 0.007651997 -0.004666402 0.0038895176 0.0018751146 0.0051444406 0.0038399093 0.0044140243 -0.0072556236 0.003459387 -0.004630236 -0.01068197 0.0010592066 -0.0023705186 0.004336052 -0.0023827902 -0.00017966267 0.00015744251 0.002854483 -0.0066857724 0.0048058317 0.0013980964 -0.0026694762 -0.0034829886 0.006351677 -0.00077701244 -0.0015422401 -0.0013004132 0.0065400936
it -0.0056501245 -0.0011473631 0.0030874552 -0.0019577933 -0.009272787 0.0012301888 -0.015770571 0.0020661596 0.013762073 0.008486302 0.0008041032 -0.005740068 -0.010032852 0.021893956 0.0035724402 0.022116655 0.011190895 0.0019340545 0.01738087 -0.0071111694 -0.0054665473 0.0016014632 0.005768903 -0.005329975 0.020900808 0.007749433 0.0095641175 -0.0045862948 0.002421498 0.0130893625 -0.012442017 0.0019633158 0.007896717 0.0055467775 -0.00075191044 -0.012061798 0.0110728005 0.0026129782 -0.0020255148 -0.008166661 0.0072362022 -0.013658902 -0.019584348 0.018279232 0.0043845847 -0.006519961 -0.0038772402 -0.009899303 -0.0052947486 -0.00883883 -0.014940985 0.0031515462 5.5147302e-05 0.0044292975 0.0091852695 0.010657875 0.003864745 0.00084124756 -0.0129249 -0.003127016 0.0106231 0.006777982 0.000688748 -0.0014744975 -0.0018189484 -0.009454544 0.0048186774 0.00017009978 -0.0048729894 0.0068013626 0.0056018783 0.002055503 0.0057372525 -0.0037920412 0.010174781 0.0057307663 0.013359154 0.0009133865 0.003962634 -0.010256683 -0.0020185963 0.0047720973 -0.016073085 0.0066949143 0.0010963025 -0.0004091581 0.0048080715 -0.007886598 -0.005677717 0.004433258 -0.011428294 0.0052948645 0.0010139376 -0.006224139 -0.005244028 0.01648231 0.0014696522 -0.010314327 0.004288763 0.0015876184
government -0.004881321 -0.004316587 -0.0029267103 -0.003186449 -0.0076205186 0.006984717 -0.009010485 -0.003405315 0.014254457 0.005826541 0.0056223883 -0.006534965 -0.013295896 0.016013933 0.0023332646 0.011689118 0.008077487 0.0031755776 0.015320775 -0.004487299 -0.004046684 0.0066990955 0.004190988 -0.006503912 0.01721507 0.010218674 0.010060022 -0.0014566741 0.0028737187 0.009555026 -0.014073286 0.0026828728 0.00204893 0.0039816624 0.0004547236 -0.0047571175 0.0034109429 -0.0050595803 -0.0033988503 -0.0075191665 0.0039889496 -0.015344891 -0.022256609 0.010247332 0.0045774803 -0.0024532087 -0.007095146 -0.0019934254 -0.0011445594 -0.0153756635 -0.0048232 0.0031404588 -0.0025167468 0.0054390165 0.0051968964 0.006567758 0.001987082 -0.00632762 -0.007926177 -0.0030556768 0.004012578 0.007424662 -0.00692347 -0.0047177086 -0.00373543 -0.009461641 0.0033891075 0.0022019364 0.001100437 0.0030812765 0.0014211413 0.0027799155 0.008044072 -0.004016068 0.006799723 0.008556878 0.0043762513 0.0035110225 0.003554581 -0.011856338 -0.00021410105 -0.0007593837 -0.0166401 0.003988651 0.001808919 0.007872345 -0.0019567045 -0.00989485 0.0010436011 -0.00012681862 -0.006917592 -0.0025330614 0.001631761 -0.010540628 -0.0005949084 0.015029751 0.0014595545 -0.009435483 -0.0008807633 0.0066577774
by -0.019719278 -0.00227383 -0.0032477055 0.0007533795 -0.009198067 0.011479523 -0.017853778 -0.0037125463 0.029120075 0.008892605 0.007947073 -0.0060094027 -0.023302875 0.033264153 0.0011579439 0.03472031 0.017367592 0.0030437612 0.023385257 -0.0053997566 0.0006820181 0.0011046383 0.0072138365 -0.009588051 0.03397714 0.011390361 0.009664077 -0.0064621833 0.0038229974 0.012743295 -0.028335076 0.008533334 0.017308546 0.010370399 -0.0033205908 -0.014569316 0.016866293 0.002064036 -0.0021510455 -0.008865195 0.013026037 -0.026300265 -0.037206378 0.030482152 0.009670601 -0.007068603 -0.008341341 -0.0066330014 -0.006393291 -0.025681254 -0.020065993 0.00403237 0.0016225519 0.002866207 0.020571705 0.009864053 0.0017772472 -0.006615015 -0.008954702 -0.0024947557 0.013566042 0.009978253 -0.010809478 -0.009726779 0.0056774984 -0.0141895 0.015817242 0.0012510722 -0.004357932 0.012435509 0.0086303335 -0.0015325422 0.01730291 -0.0076941843 0.011467222 0.0072981087 0.013187864 0.007470321 -0.001121509 -0.024168337 -0.00066535524 -0.0035920052 -0.028885651 0.0063486467 -0.0074124034 0.0074387263 0.00061728427 -0.009149409 -0.006590039 -0.0016712737 -0.02226168 0.0014096369 0.0019813736 -0.011179097 -0.00021526452 0.028050222 0.012328342 -0.016718896 0.0009280982 0.00991213
- -0.012352287 -0.0008464317 -0.0006300499 0.00396375 -0.009553577 0.003563855 -0.017674442 -0.0037950026 0.020338865 0.00433951 0.007003016 -0.011506697 -0.011794118 0.02012311 0.0068522203 0.021999901 0.0107029155 -0.0032523645 0.018303467 -0.006230299 -0.0063489866 0.0051885885 0.0017025112 -0.006373524 0.024139443 0.0121654505 0.0042762966 -0.0014582489 -0.0019035554 0.012148195 -0.025423735 0.0039006327 0.011796048 0.0062142257 -0.0018204753 -0.018833801 0.009742793 0.0013328681 0.00082912785 -0.010242591 0.009427919 -0.015457932 -0.026757041 0.023454113 0.009458514 -0.0055223946 -0.0075222244 -0.002072898 -0.0032454717 -0.012506246 -0.017853402 0.008375061 0.005080721 0.0033013823 0.013597324 0.013486811 -0.000896801 -0.008586156 -0.008429266 -0.008343368 0.012735875 0.007821428 -0.0005489443 -0.009059598 0.001286286 -0.0041829376 0.011628816 0.0053707287 -0.002757373 0.013289449 0.0021465286 0.0020745413 0.0072887004 -0.00041869772 0.004454405 0.010371584 0.007915262 -0.00014523529 0.0043549323 -0.011528332 0.0053766994 -0.004713872 -0.020354683 0.009935388 -0.007926608 0.008317083 -0.00011943144 -0.008940406 0.00033642218 0.0022738716 -0.020464495 -1.8066394e-06 0.0012298919 -0.011125941 -0.0017860407 0.021446781 0.008835331 -0.015430193 -0.0008853669 0.0023343991
will -0.008205134 -0.0035001158 -0.005180721 0.0033080431 -0.0023382904 0.002153049 -0.008398739 0.0014309051 0.013274032 0.001214256 0.0026310298 -0.007421493 -0.0045596105 0.009975657 0.002799697 0.009598892 0.008259678 0.0011870645 0.0051105325 -0.002092884 0.0025352717 -0.00027667897 9.724789e-05 -0.0011035916 0.012207845 0.0070508546 0.0056721647 0.0004963075 -0.0005166973 0.006948707 -0.00906141 0.0022349348 0.006045079 0.009822314 -0.00034564614 -0.006303852 0.010042582 0.0029677043 -0.0024924409 -0.007209299 -0.000259305 -0.015073772 -0.018276324 0.0061405953 0.0059208926 -0.003999653 -0.0018439444 0.0005770703 -0.0062234076 -0.006339726 -0.005811216 0.0047999388 0.0015873273 -0.002928751 0.006253553 0.0062475703 0.005919766 3.139008e-05 -0.010102238 -0.00411873 0.0008896665 0.00037738917 -0.004199033 -0.0028979585 -0.0022249497 -0.004114436 0.004816073 0.0060971878 -0.0017834337 0.004769706 -0.0024178326 0.0005253511 0.0015004599 -0.0043063387 0.0040037744 0.007978541 0.008203914 0.0043349583 -0.0029713414 -0.009335953 0.001613464 0.0006578061 -0.009356012 0.003862905 -0.005215115 0.006913418 0.0015264646 -0.0034723175 -0.0015359744 -0.00018716992 -0.008888068 0.003656821 0.0005666163 -0.009676889 -0.0044901855 0.006922168 0.00093018916 -0.011084612 -0.0012076367 0.00088944775
at -0.01019237 0.0008859537 -0.0017575141 0.0027315745 -0.010549105 0.009684133 -0.0122172935 0.0027075368 0.024939662 0.0024261237 0.0022604784 -0.007815901 -0.01851141 0.02686672 0.0026961337 0.026433269 0.012616756 -0.00083846843 0.021076774 0.0009098126 -0.006448606 0.006643632 0.0064665633 -0.014157312 0.027986405 0.015571831 0.008397741 -0.0062878607 0.00053999794 0.016777102 -0.024309998 0.0064146174 0.007370813 0.011879323 -0.0023514356 -0.01918087 0.0145601835 -0.006268534 0.0027679743 -0.01128894 0.005653438 -0.01911246 -0.03373749 0.022352172 0.008953377 -0.0065621375 -0.008647577 -0.008115837 -0.0026127778 -0.016280338 -0.015314942 0.01060708 0.0012435244 0.0037714962 0.016341198 0.010023403 0.0041376683 -0.0058359336 -0.007350031 0.00054248975 0.009600794 -0.00061842345 -0.0075343316 -0.012792257 0.004034571 -0.012587818 0.012030349 0.0057913503 -0.0031193688 0.01441827 0.00016200944 -0.007405023 0.00746552 -0.005514283 0.0068040285 0.01191011 0.015229312 0.0036628738 -0.001714345 -0.019235393 -0.003043467 -0.002257002 -0.01977944 0.006280722 -0.00800673 0.008816121 -0.00132241 -0.007974411 -0.0008731252 0.0012951235 -0.021732476 0.00023110569 -0.0015785212 -0.011323956 -0.0038431217 0.01951688 0.009366335 -0.013086791 0.001352391 -0.0008703567
us -0.0056999777 -0.0052224607 -0.0033895534 -0.00070861395 -0.00491992 0.0018346966 -0.011593844 -0.0019158248 0.007331872 0.008000315 4.523684e-05 -0.0047553917 -0.005805171 0.01112606 -0.0019742853 0.014182416 0.011280339 0.0041644764 0.01151457 -0.00078267575 0.0015450155 0.005704266 0.005954641 -0.0015125719 0.018075239 0.007391032 0.007089309 0.0008273729 0.00047182475 0.0019875073 -0.015738769 0.006659385 0.0037233045 0.0023518747 -0.004913617 -0.006814963 0.002590034 0.0015691911 -0.00074096705 -0.008610359 0.003578691 -0.012865955 -0.017584177 0.009702073 -0.0004492097 -0.001103832 -0.0016088858 -0.0012278379 -0.0038635859 -0.009232972 -0.010780745 0.0054580467 0.0037073784 0.0019173175 0.012212183 0.0058247163 -0.0015777085 -0.0008659129 -0.008535 -0.007559338 0.006138236 0.002942548 -0.0031955608 -0.0023077037 -0.0019922496 -0.008550011 0.008641688 0.0054676924 0.00047145603 0.0021605117 -0.002289034 -0.006430844 0.007950205 0.0035732016 0.0023844084 0.0014645264 0.0070242602 0.0018757569 -0.003016468 -0.014442683 -0.0004911334 0.0017794878 -0.011469197 0.001316178 0.0021042803 0.0005281486 0.0019410057 -0.005820984 -0.005784329 -0.0034851432 -0.008231098 0.00092300616 0.0006636913 -0.0025004758 0.0033007974 0.012599167 0.0025486138 -0.0054340996 0.0013233634 0.005096712
uk -0.013249877 0.0022569834 -0.004536725 -0.003973485 -0.0034900317 0.0073881154 -0.010101119 0.003611006 0.019876326 0.008745121 0.0077575278 -0.008180534 -0.017156612 0.016337937 -2.1709173e-05 0.025336834 0.0112076765 -0.0032983273 0.01199054 -0.003458567 -0.0012404637 0.00318366 0.002363895 -0.009201118 0.019865694 0.008080881 0.009938816 -0.0025988177 -0.003124586 0.012696399 -0.015021305 0.0036772988 0.007344275 0.013497695 -0.0019335685 -0.0131271705 0.00823015 0.0017087416 -0.004579904 -0.0073008477 0.0071796733 -0.014982235 -0.022772616 0.022292547 0.008147353 -0.009293842 -0.0038891558 -0.0028646614 0.0014385162 -0.0184652 -0.013607438 0.0047230497 0.0019269518 0.0026454323 0.016380157 0.005409498 0.0043236013 -0.0017977259 -0.0076823356 -0.008693553 0.003597761 0.004192133 -0.008848973 -0.010578171 -0.00080716715 -0.009930585 0.006412059 0.0065508606 -0.0025794895 0.01096975 0.002993183 0.0006731292 0.013257166 -0.0018103915 0.010210396 0.006462391 0.0121399835 0.0075776177 0.005916787 -0.01796248 0.002241684 -0.004521235 -0.016464375 0.0039666635 -0.0013438371 0.0023062842 -0.002411536 -0.00814469 -0.00624114 -0.001042418 -0.014698402 0.0013844455 -0.005297083 -0.014020443 0.0026746942 0.02256099 0.008815084 -0.018443761 0.00032784612 -0.0010842907
we -0.0038790698 0.004410586 0.0011161003 -0.004635981 -0.0039028646 0.004979703 -0.011809061 -0.0019696108 0.013464974 -0.0016548128 0.0019619786 -0.0049532577 -0.007173559 0.010440399 0.0060472502 0.0066961767 0.00394838 0.0012246284 0.0047154822 -0.00433968 0.000697253 0.0003869407 0.00082371006 -0.0021774853 0.013040286 0.008012914 0.003909925 9.319946e-05 0.0007177994 0.0086848205 -0.009031669 0.0068577984 0.006220302 0.009735922 -0.002058784 -0.006120333 0.0033674208 -0.0046226615 -0.002883571 -0.0066712806 0.00076006 -0.0061389515 -0.017432544 0.010380333 0.004658055 -0.004976758 -0.0055352184 -0.004901488 0.0027092434 -0.011183078 -0.0020388113 0.0022825864 0.00049883296 0.004403628 0.004157419 0.004877297 0.0016380339 -0.0069313995 -0.00672642 -0.0021568174 -0.00053176825 0.0008278505 -0.003093542 -0.007394181 0.000104539584 -0.0039095054 0.008995484 0.005330277 0.0004510543 0.009149332 0.0016272402 -9.20497e-05 0.009046768 -0.0059400517 -0.00079438346 0.00678198 0.007823577 0.004793839 -0.00024124247 -0.004782401 -0.0019886584 -0.0020116577 -0.014603503 0.0014942593 -0.0030019972 0.000364001 -0.0038078863 -0.0054410906 -0.0008607118 -0.00035918423 -0.008807453 0.003642664 0.003624929 -0.004011387 -0.0011908477 0.013805905 0.0014197917 -0.011902678 0.006041223 0.0027991764
from -0.010446074 6.368709e-06 -0.005191075 -0.00017289302 -0.0056531527 0.0027910618 -0.010893763 -0.00013585718 0.021148853 0.0007144983 0.002606861 -0.009960352 -0.014951145 0.020295952 0.0018968333 0.027765004 0.00865736 0.0026806367 0.0142010925 -0.0067248982 -0.003605161 0.00665513 0.005064917 -0.0068139546 0.01931782 0.01447149 0.00419037 -0.0027047687 0.0015423682 0.011472468 -0.02087402 0.005147668 0.00945659 0.011189378 0.0028054994 -0.014972184 0.0140966205 0.0011220843 -0.006367118 -0.011308899 0.0042650294 -0.019007744 -0.02830176 0.021934494 0.003606497 -0.0037556621 -0.0049980334 -0.011735488 0.0010009087 -0.021577226 -0.015847934 0.005341631 -0.00011182683 0.00606382 0.016919076 0.012688329 0.00030149092 -0.0057921745 -0.0070831003 -0.006583224 0.009006829 0.004935429 -0.0022207766 -0.007893544 0.0011667807 -0.010610294 0.013564498 0.0005180843 -0.0073942365 0.0089421095 0.00349261 -0.0015576307 0.01181793 -0.0035850713 0.008538123 0.009428033 0.0101395445 0.00032783934 0.0003855332 -0.019280503 0.005884571 -0.0042578606 -0.020981196 0.011335121 -0.004953953 0.0077248523 -0.0024153707 -0.0113544 -0.00782067 0.0073821293 -0.022695923 0.0027494477 -0.00082877796 -0.007530148 -0.0014108159 0.020673066 0.009119293 -0.0140542155 0.008577903 0.0038936615
an -0.013619755 -0.0050589796 -0.004395332 -0.0051348354 -0.007354674 0.005399468 -0.012031668 0.0019988515 0.015791964 0.0006833845 0.0012568987 -0.0018654068 -0.01322878 0.022081306 0.00037962824 0.019757856 0.008003317 0.0024028348 0.014131022 0.0005854968 -0.006018279 0.00694229 -0.0015902669 -0.007997065 0.022302177 0.010794938 0.007764108 -0.0044752955 -0.000632262 0.013636873 -0.016420178 0.005268515 0.0041229287 0.008179845 -0.0021105856 -0.016418891 0.014313651 -0.002955744 -0.0009355947 -0.006318087 0.0065162694 -0.016703019 -0.021452442 0.020580614 0.00959542 -0.009565553 -0.0019250046 -0.010110329 -0.001293135 -0.013960474 -0.014076828 0.0015506175 -0.0005983238 0.001759593 0.014459125 0.010511709 0.0045934184 -0.004877673 -0.004133516 -0.0006726411 0.011514665 0.0059924386 -0.0038024865 -0.007014692 0.0052435123 -0.0054828688 0.013546928 0.003712058 -0.00907186 0.0095309755 0.005778021 0.0016683654 0.011505635 -0.0016514707 0.010809347 0.010528261 0.013329669 0.0045435843 -0.0023516444 -0.008136951 -0.001198223 0.002551673 -0.018482445 0.0028774326 -0.004906046 0.0026611031 0.005118473 -0.0034262491 0.0003735155 0.0005623588 -0.016662952 0.0014242419 0.0038568743 -0.014270455 -0.0011525283 0.01869201 0.003770029 -0.014769173 0.00035232978 -0.00078675564
said -0.007414713 -0.00443326 -0.003414556 -0.0004476663 -0.0040370463 0.0077365423 -0.0060169594 -0.0054919114 0.017580478 0.008351488 -0.0018433025 -0.009748438 -0.014352252 0.014351682 -0.0008226577 0.017301641 0.013753984 -0.0028126154 0.01540529 -0.0038471366 -0.0015941898 0.004083903 -0.0015033152 -0.0044322964 0.017900191 0.010086422 0.0041033607 -0.0061976956 0.0037804183 0.012509248 -0.012278434 0.001481998 0.002614049 0.004994713 -0.00109548 -0.010676505 0.008830795 0.0018667355 -0.002992012 -0.00041809794 0.0074183065 -0.016559815 -0.025151564 0.015531541 0.005791737 -0.0016633878 -0.0059872284 7.900871e-05 0.000648723 -0.007974335 -0.005267645 0.0071674613 0.002393229 0.0023641645 0.007391254 0.009754865 -0.0018124232 -0.001908186 -0.003289855 -0.0012910513 0.005604229 0.0066943956 0.000106372434 -0.0019130638 -0.0040698727 -0.006860551 0.012445094 0.0033120618 -0.0026571932 0.0033237976 0.0024731797 0.0012048468 0.010203394 0.0016076709 0.008952291 0.0002975984 0.0039660973 0.006981415 0.0032036873 -0.008369285 0.0007143387 -0.0011789746 -0.016808411 0.009772112 -0.0048167617 0.004769637 -0.0005788717 -0.0046317903 0.003025429 -0.0004032888 -0.013997111 0.0039920365 -0.003447673 -0.0080212215 0.0003651103 0.009949151 0.010039275 -0.010915552 0.0063327476 0.006867096
this -0.012422633 -0.0014962594 0.0039802985 0.0034266815 -0.0016464991 0.007443966 -0.015132849 -0.005489161 0.015297217 -0.00122863 0.0043606083 -0.00939951 -0.0072741136 0.013546175 0.00138297 0.01835925 0.0052785277 0.0035577067 0.016605016 -0.0058350298 -0.0012941083 -0.0024307005 0.0040277927 -0.0021518492 0.019006705 0.005114014 0.007852895 -0.0027644385 0.0057294723 0.01178524 -0.018418077 0.0064440174 0.00466715 0.0039846897 -0.0009569103 -0.006898512 0.012398255 -0.0011780793 -0.0041135983 0.00026567196 0.0041884896 -0.016671684 -0.015738498 0.013906379 0.0058784382 -0.006269891 -0.00021668545 -0.0072668013 0.0016494775 -0.0076247496 -0.013097322 0.0045904545 -0.004708565 0.00082377857 0.013578286 0.008779959 0.0017780098 -0.004104127 -0.0046918667 -0.004367148 0.007188714 0.003014388 -0.00017355407 -0.0047866097 -0.0015347383 -0.009790012 0.00796432 0.00020849901 -0.0029006032 0.012815724 0.006483325 -0.0015675861 0.010605893 -0.005066343 0.006725237 0.008770513 0.010629257 0.0055426336 0.005144221 -0.013272812 -0.004312318 0.0011645578 -0.015102775 0.006104212 -0.0065100878 0.005791301 0.005845469 -0.009182245 0.0015658244 -0.0004581641 -0.016053578 0.0032619163 -0.0022308596 -0.0065927426 0.0009557225 0.01263676 0.010164946 -0.011991787 0.0010431553 0.0047051627
first -0.0054098153 -0.00037250805 0.0013553061 0.0034962774 0.0002520212 0.0037017735 -0.00437228 -0.00545636 0.010068555 0.00060198293 0.0019483693 -0.0035299503 -0.009309377 0.012987314 -0.003174426 0.003801554 0.008130048 0.0027369638 0.0038154174 0.0035680865 0.002827002 -0.0010841307 -0.0009785194 -0.0053663864 0.013182674 0.0058602267 -0.00036520648 0.00017240352 0.0024080158 0.008333591 -0.0068522473 0.0009999633 0.0089097675 7.2826144e-05 0.0031144887 -0.010404793 0.004440524 -0.0025895766 -0.0012049457 -0.006009841 0.0025107826 -0.0057674693 -0.012459243 0.011931566 0.0046949936 -0.002629474 -0.0073371786 0.00091822504 -0.0033144641 -0.004880162 -0.008270046 0.0012374292 -0.00028448543 -0.0038130372 0.0076326374 0.0059265755 0.0019758448 -0.004266867 0.0004594932 -0.0003045944 0.0017771475 0.004557907 0.0020111713 -0.0068221004 -0.0019344863 0.0009367714 -0.0006710568 0.0046585035 -0.004264345 0.0041948017 0.002472522 -0.0059962817 -0.0011914304 -0.0028530546 0.0022632764 0.007110402 -0.0003904739 -0.0010589886 0.0038018795 -0.009605659 0.0015376903 0.0036651122 -0.010412847 -0.00036377888 -0.00079131476 -0.0014238055 0.0010012216 -0.00063518476 0.00044543782 0.0042494526 -0.008320357 0.0024094875 -0.0052943695 0.00045002572 -0.004696218 0.009316598 0.0033121826 -0.010127383 0.0062019196 0.0028116389
there -0.009187843 -0.0016345734 0.0036083355 0.004470914 -0.011217794 0.0059381602 -0.0056429356 -0.0050411136 0.010618748 0.004683217 0.0029927692 -0.0009140531 -0.010222605 0.016340245 0.0011981407 0.013451501 0.010284092 -0.0031867481 0.011961939 -0.003413275 -0.0033581376 0.0036665474 0.0027641107 -0.008139257 0.018417455 0.012000503 0.002242875 -0.0015528637 -0.00086469133 0.0047487766 -0.012666584 0.001025988 0.00818967 0.0036955231 -0.001858629 -0.015120056 0.013026661 -0.0040819705 -0.006439732 -0.005132946 0.002723018 -0.01651496 -0.019743219 0.018497633 -1.9414052e-05 -0.0043417024 -0.0056679253 -0.0016099338 -0.001828408 -0.015318247 -0.008667691 0.0041302256 0.0009501231 0.0051798844 0.008126909 0.004306344 0.0024827633 -0.00522933 -0.0106905345 -0.006593746 0.0077143246 0.0013617922 -0.002679107 -0.010296126 0.0013573144 -0.004909563 0.009395302 0.0038283048 -0.00027321387 0.0060613896 0.008308601 0.0012045227 0.006278043 -0.0012162342 0.00075269165 0.004255255 0.0066181677 -0.001708346 -2.061006e-05 -0.010648167 -0.0016921702 0.0022141896 -0.019402461 0.006898198 -0.0003554363 -0.0012632998 0.0030969102 -0.010271899 -0.0004544389 -0.0030640608 -0.010023806 0.0015930452 0.0008246265 -0.004632241 -0.0042580706 0.013457503 0.009890197 -0.010244901 -0.0021636235 0.004938292
been -0.012134983 0.00072569586 -0.002874857 0.0012343014 -0.010534855 0.004119496 -0.013418299 -0.002029785 0.019018073 0.008047327 0.0052527403 -0.006547921 -0.014200627 0.016949128 0.0014153158 0.0147785805 0.010966748 -8.992359e-05 0.016485887 -0.0063752537 0.0012004907 0.003543195 -0.001089001 -0.009218464 0.014095531 0.010937359 0.010018733 0.0019011392 -0.0031020043 0.009759105 -0.018214775 -0.00056920596 0.010672034 0.005730996 0.0038662327 -0.014726947 0.006342118 -0.001161452 -0.0024774196 0.00032242519 0.004346823 -0.012217887 -0.019413637 0.011645984 0.0062149297 -0.009510237 -0.0035331845 -0.0012533774 -0.00064561976 -0.008524254 -0.005984338 0.0031192577 -0.0023794586 0.002487614 0.0137986215 0.009214193 0.006717601 0.0006280131 -0.0040590432 -0.004590609 0.008027534 0.00042523508 -0.0023302012 -0.0036681169 0.0035413736 -0.007162245 0.0064603104 -6.217867e-05 -0.008045247 0.008215488 0.0058013466 -0.005985196 0.009075635 -0.0024745136 0.0028743707 0.0052727866 0.00587481 0.0049559893 -0.0006018645 -0.009472261 -0.0004877241 0.0050333594 -0.018990526 0.0012351602 -0.006300009 0.00813082 0.0045602685 -0.002065981 -0.00044703332 -0.00013328007 -0.010373428 -0.0016603717 0.0010121644 -0.00832545 -0.001512378 0.017630512 0.010630639 -0.009217523 0.0074796784 0.007611996
be -0.01417514 0.0024306506 0.002574063 0.00032203906 -0.008128471 0.0053540384 -0.0142691545 -0.0041954224 0.013507628 0.00020366824 0.004049331 -0.004147119 -0.012086256 0.020921145 0.0063684583 0.0130131245 0.009976793 0.0053664767 0.017203826 -0.0008593208 0.002072941 0.0010440691 -0.0031751308 -0.008828993 0.01980122 0.005482597 0.010594294 -0.0034901507 0.0019178388 0.004711131 -0.013915697 0.0029567902 0.012954394 0.011570815 -0.005252131 -0.010010287 0.0069508897 -0.0032726885 -0.005147911 -0.0064722784 0.009704356 -0.018582568 -0.021358017 0.018085802 0.009652275 -0.009309838 -0.006623416 -0.007632579 -0.0031017594 -0.0125535345 -0.015774712 0.0015299339 0.00022576026 0.001786774 0.011143578 0.010317735 0.0025399558 0.0008695572 -0.0033658997 -0.0036631497 0.008997427 0.004325178 -0.0072297356 -0.010560941 -0.002934181 -0.006995242 0.0076857535 0.002669592 -0.00077070773 0.0040614633 0.007560428 -0.0065633403 0.0065274118 0.002768002 0.0021164236 0.0031395531 0.0055802977 0.005620858 0.0058122035 -0.0077668773 -0.0036521654 0.002299241 -0.014145983 0.00358964 -0.00057291257 0.006588398 -0.0021717562 -0.0030638638 -0.006022991 0.00080002716 -0.012719668 -0.00059009774 0.00430614 -0.0051134564 0.0011065486 0.018354693 0.0013006378 -0.015967174 5.357516e-05 -0.0010928698
are -0.013216644 -0.005088157 0.0024997885 -0.004765415 -0.009845589 0.0030586147 -0.01781561 -0.003650717 0.020515358 0.0049415794 0.0053539835 -0.009878313 -0.013744856 0.020370506 0.0074901585 0.022631522 0.014567563 0.004786167 0.019277541 -0.0050290804 -0.002053195 -0.0005509459 0.0008573338 -0.010401949 0.02289514 0.00537861 0.012133564 -0.0031122547 0.0010255779 0.0100220805 -0.01938802 0.0013769425 0.0042550126 0.008921423 -0.0022676915 -0.013297969 0.009831038 0.001413504 -0.0021565894 -0.0031069317 0.0017027926 -0.017315993 -0.021758562 0.015326918 0.0010807859 -0.0102905175 -0.008297089 -0.006472683 0.00059988815 -0.012207609 -0.015066521 0.004969731 0.00022626013 0.0055111893 0.00954441 0.009530695 -0.0017101376 -0.0055034696 -0.012192864 -0.0049010804 0.010686186 0.0044258283 -0.004641827 -0.00532402 2.4883184e-05 -0.0096822865 0.012818277 0.0044232826 -0.0051372084 0.009251361 -0.00046817734 0.0023673521 0.008768638 0.00050023274 0.0081888465 0.0078057554 0.015197537 0.001460055 0.0014428082 -0.014585845 0.004865055 0.003127697 -0.018293008 0.009322046 -0.00765328 0.0013225161 -0.0019088406 -0.010721928 0.0006901544 0.0035218315 -0.017700508 0.0002592763 -8.203623e-05 -0.006991731 0.0013772633 0.014743139 0.006086231 -0.014458918 -0.0007040777 0.0010945626
not -0.004911504 -0.0051362673 -0.00068740075 -0.00285979 -0.0020091066 0.008103053 -0.014570878 0.0012541023 0.018174376 0.0033738 0.006296257 -0.0039020758 -0.017059175 0.014466721 -0.0016243601 0.017282268 0.009649238 -0.0034589604 0.013719475 -0.00041762352 -0.002087314 0.0025442902 0.00074115227 -0.0063236263 0.019843407 0.004765324 0.0068774787 0.002096371 -0.0006990466 0.010603897 -0.019744985 -0.00052303076 0.0060942653 0.0027766316 -0.004550832 -0.015146161 0.010623414 0.0015564542 0.0022739747 -0.0068768393 0.0070270663 -0.015536222 -0.016819447 0.010684405 0.009064469 -0.0008830959 -0.0012257412 -0.0078042713 -0.0023727017 -0.01612504 -0.0052715275 -0.0009604175 0.0010556232 0.004432847 0.006937777 0.006757147 0.0045571444 -0.0012080265 -0.009429047 -0.00303213 0.0042143827 0.0068011074 -0.0071208146 -0.009384129 0.0029705742 -0.008589468 0.009774781 -0.0014415695 -0.004767635 0.012077266 8.2077575e-05 -0.0038516892 0.009766562 0.0003140692 0.0020637128 0.002416811 0.0064089843 0.0006955961 -0.0031532492 -0.0066008354 -0.0044670687 -0.0032386575 -0.017244685 0.009365425 -0.0022735402 0.0066760303 0.0008609412 -0.007691899 -0.006432402 0.0033934107 -0.017164556 0.0003511528 0.0016366327 -0.012330554 -0.006130325 0.018662047 0.009421502 -0.007232851 -8.720916e-05 0.0064079994
coronavirus -0.008984015 -0.005311283 0.0035685168 -0.003544246 0.0015097426 0.00012374089 -0.005168694 -0.0044020875 0.008351139 0.003598226 0.0058937036 -0.006620159 -0.011395618 0.0072761686 -0.0030572216 0.0129803 0.0060719876 -0.0007073674 0.0061993813 -0.0041484484 -0.0016490304 -0.0024610546 -0.00085119443 -0.0044052815 0.009941717 -1.2502705e-05 0.004650623 -0.0016025085 -0.0016497809 0.0015132739 -0.009928871 0.0028315557 0.008588818 0.009262942 0.0024997045 -0.010176746 0.007627206 0.0010794007 0.003687234 0.0021503384 0.000113843686 -0.011969755 -0.007795505 0.010658035 0.00462928 -0.0041656536 -0.0023532354 -0.0046251398 -0.0050503 -0.011229981 -0.008031324 0.00082716375 0.002939358 0.005223152 0.005200957 0.005258581 -0.0036816907 -0.0015771014 -0.0079158265 0.0009830659 -3.20501e-05 0.005985582 -0.0014557265 -0.0036427593 -0.0039762543 -0.006547267 0.00552712 0.0049549676 -0.005797842 0.0024646763 0.005299342 -0.0050640423 0.0073145977 0.00040628633 -0.0012618796 0.0043873973 0.007974559 -0.00076467736 0.0050027254 -0.009557334 0.0018681947 0.002395027 -0.012873573 0.0024419888 0.0037155366 0.0055253245 0.003657153 -0.00342112 0.00050946366 -0.00024521732 -0.01070103 0.0018781177 -0.003688524 -0.0042591263 -0.00401096 0.008038849 0.004508046 -0.0021404328 0.001404991 0.0027837506
their -0.004294128 0.0027344853 0.0031472135 -0.0017737519 -0.004737286 -0.000803292 -0.015148084 -0.0031219432 0.018328099 0.0011964483 0.0006419195 -0.004841831 -0.008113098 0.016127363 0.0017760299 0.015272371 0.00851664 -0.003304169 0.011942647 0.00056123745 0.002105421 0.0063216262 0.0058064596 -0.0023777205 0.019325895 0.007886716 0.007069447 -0.0003972971 -0.0034592217 0.011342319 -0.01729437 0.0015206914 0.0038367626 0.010009498 -3.7833008e-05 -0.0141009 0.012711897 0.001302629 0.0030278293 -0.00032955882 0.009028113 -0.015171405 -0.023838283 0.015997127 0.004150871 -0.0076477495 -0.005356664 -0.00061484607 -0.0034026399 -0.009320066 -0.014098138 0.0008410462 0.0037305353 0.005537457 0.0072901915 0.011088905 0.00277388 -0.007677471 -0.002973778 -0.004907667 0.0058577848 0.007124327 0.00035748197 -0.010712531 0.0039159153 -0.0012069546 0.005813138 0.0009673599 -0.0055665253 0.0041627875 0.008182273 0.0026988578 0.00447863 -0.0015830834 0.0052492106 0.009759519 0.0049312767 -0.001284216 0.0042128847 -0.0162802 0.0041698734 0.003824806 -0.010899943 0.002791698 0.0018398452 0.0069299857 0.004370238 -0.009308141 -0.00024596418 0.0026277183 -0.01387223 -0.0018240794 -8.780601e-05 -0.011488045 -0.0011134794 0.010831933 0.008841567 -0.014966961 0.0019118524 0.0009007172
were -0.004494054 -0.004783177 -0.0036686398 0.002990181 -0.00886275 0.0028040023 -0.007990134 -0.0004492183 0.009670593 0.0041637626 0.001933897 -0.0078084944 -0.015029937 0.01354435 0.0038911526 0.014961023 0.003924899 0.0046577854 0.0133042885 -0.0007456316 0.0017220807 0.006687208 -0.0018253952 -0.0032323806 0.016304456 0.0049512405 0.0044161812 -0.0026919208 0.0052762465 0.007884999 -0.01600848 0.0022924033 0.007766768 0.003196696 -0.002907325 -0.00721296 0.009171668 0.001720666 0.0018097688 -0.0077075255 0.0065521426 -0.012609162 -0.02283147 0.017020456 0.0064555123 -0.0072249738 -0.004448422 -0.004530756 0.00043444106 -0.005708109 -0.005297552 0.0001803741 -0.00030583868 -0.0039043895 0.0102594 0.004699109 0.0026579236 0.00048243077 -0.0039819507 0.00250878 0.0012839523 -0.00033124452 -0.0033785899 -0.0083541125 0.0028437355 -0.009318065 0.0036643853 0.005846393 -0.0077251876 0.0032081355 0.0011490561 -0.0007405335 0.0031781024 -0.0011380748 0.0008158256 0.0009636375 0.011829155 -0.0026634417 -0.003941062 -0.00672619 -6.4756816e-05 -0.0036238162 -0.010378011 0.0062684 -0.00042247708 -0.00072933856 -0.0006712336 -0.0010006232 -0.0007597169 0.00078755803 -0.013296473 -0.0001280263 -0.0009828694 -0.0035962798 0.0015489426 0.008465325 0.008786475 -0.010048671 0.004080354 -0.00073863915
also -0.010394129 -0.0051299618 -0.0015926604 0.00238257 -0.007918333 0.0012463428 -0.01118962 -0.0042227665 0.015724218 0.0033589564 0.007892593 -0.0056168824 -0.01222554 0.023336675 0.00052956626 0.01726414 0.01127259 0.00081326073 0.017828533 -0.006999988 -0.007102158 0.0046090125 -0.0016006846 -0.0077969898 0.025416905 0.008695043 0.0062111095 -0.001159813 0.006140135 0.007868273 -0.016107209 0.00069923786 0.0065106275 0.011196802 -0.0036523635 -0.01490746 0.013056818 -0.0063075228 -0.002909847 -0.0065035224 0.0061729876 -0.013983356 -0.024768716 0.015422419 0.002139498 -0.005604103 -0.010715447 -0.0032412708 -0.00064639916 -0.0102087185 -0.017227836 0.008909094 0.004733703 0.006068398 0.012715316 0.011569815 -0.0006543185 -0.0026237406 -0.014510575 -0.0012269586 0.012451107 7.423614e-05 -0.0003836538 -0.0045525692 0.0018867605 -0.0054285782 0.012361658 0.002217866 -0.0020562122 0.013817554 -0.0002714915 -0.006298038 0.013200343 0.0028375026 0.0042123315 0.007512998 0.011986925 0.0069294553 -0.0029309012 -0.015293437 0.0017775433 0.0026716534 -0.02358606 0.0056695454 -0.005049777 0.0066331667 -0.0034972134 -0.010755022 -0.0005342661 -0.0026575013 -0.01661872 -0.0019041806 -0.0049707023 -0.0066988273 -0.006435191 0.014856961 0.008200803 -0.013316375 -0.00075928605 0.0066616065
up -0.0017418237 -0.0036676526 -0.0021551622 0.0010494015 -0.009344427 0.005576093 -0.012357994 -0.0029030612 0.014909091 0.007055878 -0.002223266 -0.008302235 -0.012851606 0.012900095 -0.0026594717 0.008514835 0.008419423 -0.0029428026 0.01013259 -0.001836787 0.0027975678 0.0017170919 0.005911238 -0.003027078 0.013937228 0.009606317 0.004583035 -0.0041300077 -0.0035991366 0.002568945 -0.010674463 -0.0004917868 0.0033748571 0.0011866908 -0.00409357 -0.0056635207 0.008302209 0.0025041855 0.0017276694 -0.007842958 0.0001329483 -0.012172709 -0.019130671 0.011252128 -0.0003564759 -0.0010701785 -9.212133e-05 -0.0008007486 -0.005370013 -0.007194601 -0.01116026 -0.0020609614 -0.0002776665 0.005488332 0.0071260277 0.010474012 -0.0030183748 -0.004389162 -0.00492641 -0.0054192697 0.006004496 0.0071724528 0.00075311563 -0.0026236135 -0.0001619911 -0.0077962894 0.0037124627 0.00021488807 -0.0050698286 0.010543954 -0.0014169243 -0.0056223394 0.008004721 -0.004021792 0.0063905623 1.9208157e-05 0.010655163 0.0066635227 0.00047096642 -0.0107437465 -0.002539682 0.0029234048 -0.012833255 0.0022795822 -0.004060093 0.0003454607 0.004119062 -0.0027488507 0.0006985989 0.001910365 -0.004952415 -0.003340685 -0.0046198783 -0.0059159733 -0.0036515277 0.00921276 -0.00014776 -0.009581424 0.0035304418 0.005348296
had -0.0057882564 0.0005798137 -0.0028984062 0.0018257236 -0.0073158178 0.0058064642 -0.012177607 0.0017732752 0.009492598 0.0056537506 -0.0025043467 -0.005941366 -0.01061454 0.009839046 -0.001231533 0.014605853 0.0044087875 0.0002445932 0.005603635 -0.00073403266 0.0026825264 0.0037710397 -0.0006519677 -0.008778806 0.01237423 0.0029402105 0.007731306 -0.0019267013 -0.003213551 0.0034442504 -0.005693753 0.006753288 0.0074151806 0.0037899972 0.00363129 -0.009040239 0.0047670095 -0.006065228 -0.0036701562 -0.0076001263 0.006152923 -0.010030203 -0.013044654 0.01381323 0.006583015 -0.0036397257 -0.006424583 -0.007954192 -0.0014772806 -0.0128525775 -0.00943887 0.0018458142 0.004578553 -0.0032065546 0.0076033087 0.0038015407 0.0005842959 -0.0059949867 -0.0096130585 -0.0034004522 0.003409918 -0.00033963582 -0.005829422 -0.0038397443 -0.0032634563 -0.006560118 0.0055171414 0.0049846508 0.0027310785 0.0065641617 0.0060447855 0.00037509616 0.0015407545 0.003457887 0.005338507 0.00062495 0.0069716913 -0.0015353869 0.004665361 -0.01253869 -0.0040640845 -0.0016544228 -0.007439302 0.008210994 0.0023546866 0.0026420045 -0.00025328534 -0.00818449 0.0008067643 -0.0002979201 -0.004446662 0.0015993471 0.0036796343 -0.008747888 -0.00092592125 0.013571168 0.005514599 -0.009598572 -0.001957123 -0.0014825249
more -0.010936049 0.003372245 -0.00051786087 0.004736927 -0.006234493 0.0045342515 -0.006993264 0.0027916366 0.014869738 0.00032301628 0.0026945807 -0.0015595263 -0.009817373 0.016950889 0.0024344248 0.017026192 0.011483762 0.00069112796 0.0112376595 0.0029645883 -0.0029411933 -0.002697404 -0.001517434 -0.0071032625 0.012010753 0.008052522 0.0033827804 -0.005571362 -0.0035779886 0.0020044292 -0.01316689 0.0017460244 0.009872754 0.010029505 0.0012228605 -0.012259557 0.0036908942 -0.0061867866 0.0026179464 -0.00052052626 0.0013729372 -0.016586503 -0.013012439 0.012630545 0.0055960272 -0.00607637 -0.0049858354 -0.005074571 0.0023979614 -0.007594061 -0.005889517 0.008389068 -0.0014140948 0.00086186297 0.0064571705 0.00264531 0.0016912901 0.0001541974 -0.011344955 -0.0043224995 0.0030084283 0.00092346343 0.00031276865 -0.004318285 0.0025194706 -0.008036426 0.00795094 -0.00021570861 -0.006963402 0.008975862 0.00390811 -0.00503978 0.0014706443 0.0021078307 0.00786722 7.8030804e-05 0.008453421 -0.00038484472 0.0033748455 -0.013522065 -0.00078149175 0.0036277317 -0.011866295 0.00085475366 -0.005365637 0.0027496214 -0.0007502267 -0.0077314214 -0.001890043 -0.0003458784 -0.0090105245 -0.004112017 0.000102887076 -0.008109408 0.003149385 0.011223363 0.004744741 -0.010433789 -0.0014247735 0.0069097024
what 0.0023804256 0.0025894942 0.0031011954 0.0014566766 -0.004878582 0.0048006056 -0.0014695437 0.0008025086 0.0017377909 0.0029692315 0.00012945973 0.0034304434 -0.0028511167 0.008143229 -0.0009643586 0.0021972437 0.0047243745 -0.003242354 0.0077600814 -0.0054321173 -0.0013763857 0.0025664282 -0.0041936478 0.003268295 0.0079635475 0.00011316458 0.0011117794 -0.0054211942 0.00025780467 -0.00025429373 -0.007919796 0.005001715 0.0056718388 0.006221076 -0.004087156 -0.0010959553 -0.0027596953 -0.0031194794 -0.0037445864 -0.004726414 0.0010669971 -0.0036419109 -0.0021185372 0.0068841693 -0.0004563082 0.0034735028 0.0011369109 -0.0028637282 -0.0053540585 -0.005396545 0.0005133799 -0.0016501473 -0.0042059952 -0.00056456577 -6.0972394e-05 0.005905371 -0.004066963 -0.0011738583 -0.0031216515 -0.0008532492 -0.003516921 -0.0007899806 0.00039074454 -0.0011697643 0.0016188737 0.0002604683 -0.0002931438 0.0057035354 0.00041018406 -0.0005621263 -0.0035493837 0.0039431774 -0.0012912571 -0.002913089 0.00363418 0.0034121517 -0.0029713656 0.0048983805 -0.0032660882 -0.001220179 0.0012310653 -0.0034147778 0.0002940377 0.0015179418 -0.0016903599 -0.001040056 0.00045186802 -0.0031904255 -0.0006205136 0.0024531211 -0.0016149213 0.0040128957 -0.0047259447 -0.0028691762 0.00052463665 0.0041546514 -0.0005763177 -0.0052614086 0.004856456 -0.0024567668
prime -0.008323031 0.0028437665 -0.0051241727 -0.0017893318 -0.004250433 0.0008848438 -0.008467278 0.0015508429 0.0073757228 0.0030498682 0.0047194315 -0.0048261695 -0.0059308615 0.003936417 0.0020614662 0.0035545107 0.003743457 0.00063996436 0.008243518 -0.0018049299 0.0016041609 -0.0014075359 0.0027057705 -0.0065365536 0.009270702 0.0006208923 0.0023358439 0.0014053928 0.0037703097 -0.0016151001 -0.0104676355 0.0029881436 0.005597138 5.8392965e-05 -0.002498533 -0.005775697 0.005930648 -0.00024761798 -0.004790683 -0.0003341941 0.0018345509 -0.0017242982 -0.004853463 0.0025574237 0.0053636166 -0.007083987 -0.005400568 -0.0010858155 -0.0033899734 -0.0082392935 0.0010392739 0.0025510972 0.0033490637 0.0011813032 0.004407841 0.0078120814 0.001866841 -0.00033326866 -0.0042104935 0.0020463301 0.005814304 0.004269397 -0.0034495236 9.331902e-05 0.0001344623 -0.0029520395 0.00066974317 -0.0008373028 0.0031327906 0.007113211 -0.0018285466 -0.0035017321 -0.0004668181 0.0019703615 0.0004425804 -0.00027297137 -0.0015444789 0.0019439952 -0.004205927 -0.00896975 -0.00036228728 0.002009517 -0.0030302836 0.0014638357 -0.0029234195 0.005422759 -0.00020088803 -0.00035030118 -0.0010434578 -0.0024186256 -0.010290356 0.0047421935 0.0013726932 -0.0039196587 0.0034250119 0.0060453657 -0.002503039 -0.0058245226 0.0012823392 -0.0022499682
year -0.0041779093 0.0030667598 -0.00040001035 -0.0030106897 -0.00678057 0.0036959362 -0.0017940665 -0.0044337264 0.0066041956 0.001240228 0.005543416 -0.0037802558 -0.009910086 0.011341306 0.00010929448 0.0030385063 0.005254677 0.0017335833 0.0070068324 -0.004471816 0.00059060066 -0.003022967 -0.002262486 0.00014683738 0.004541643 -0.0009954225 0.0062475903 0.0027805706 -0.0015354392 0.0038937286 -0.00987019 -0.002176404 0.000118804746 0.004805112 -0.0036792378 -0.004420111 0.008203009 0.0034557725 0.003841541 -0.001237733 0.00035310606 -0.00957718 -0.010377284 0.0013214642 -0.00033261205 -0.004336029 0.0009650015 0.00026517588 -0.0043261233 -0.0068113846 0.0006948507 -0.0019297161 0.0021545873 0.00539964 0.0027934439 0.0031760288 0.002161053 -0.0057029733 -0.00094072404 0.0022729582 0.0037346012 0.0023368585 -0.00067501265 -0.005932345 0.0009955324 -1.8535207e-05 0.008097588 0.005211641 0.0027827346 0.0068245474 -0.0016208456 8.233112e-05 0.0073195617 0.002700685 0.0070288037 0.0029528227 0.0035801188 0.005488761 -0.0044553415 -0.00728934 0.0012811692 0.0026821385 -0.010134153 0.0070654643 -0.0032206904 -0.00342546 0.0041448185 0.001653381 -0.0009008776 -0.002329307 -0.000528943 -0.004543812 -0.0016325603 -0.007043556 0.004117789 0.009144368 0.003276701 -0.008182083 0.002278978 0.0003294874
its -0.00970394 6.138086e-05 -0.00083273946 0.0018530831 -0.0076079625 0.0028240106 -0.0099719465 0.001935545 0.0147726815 0.0073694116 0.005029203 -0.004129947 -0.005799452 0.01406179 0.0002303105 0.011263348 0.010344896 0.000606672 0.009900562 -0.001480572 -0.00075935555 0.0034946993 -0.0015866489 -0.002485805 0.008532829 0.0074698743 0.0064441944 -0.0038996744 0.00070388266 0.007902182 -0.012350703 0.0038310257 0.0014219299 0.0062218807 -0.00038364195 -0.003689312 0.00236802 -0.00047968666 -0.0060187443 -0.0035290287 0.0065854304 -0.00966183 -0.018151281 0.012965879 0.0038198137 -0.0022283592 -0.0062348414 -0.0020063622 0.0016920075 -0.012477445 -0.009977593 -0.0017324628 -0.0019374943 0.0023838368 0.0071340124 0.007020384 -0.0028631738 -0.0019684443 -0.0049578515 -0.0029554213 0.0076879566 0.005704972 -0.005605757 -0.0016634389 0.0009679091 -0.008928403 0.00608912 0.0061931014 -0.0015938773 0.008158247 0.0013836154 -2.3051145e-05 0.009088192 -0.00034016938 0.00036930866 -0.0005143164 0.0042196303 0.005685021 0.00048847054 -0.006452712 0.0013681285 -0.0047888085 -0.015216932 0.002715279 -0.0065250583 0.0016582239 -0.0035745515 -0.0028909128 -0.0034468044 0.0024707194 -0.009181797 0.0051681004 0.0029775947 -0.0078034326 0.0005309056 0.01217196 0.0023540035 -0.008134726 0.0041591553 -0.0027663272
time -0.0022171135 0.004445848 0.0035901824 -0.0012272106 -0.0044148895 -0.0015352258 0.00038266275 -0.0046550585 0.0069640363 -0.0016550254 0.004404603 0.0032414712 -0.0054848865 0.006027565 -0.0030400085 -0.0015325764 -0.003087375 0.005185652 0.00076194195 0.0039408817 0.0013261142 -0.0018894778 -0.0011721242 0.0038262226 -0.00047397756 0.0014037468 -0.0017357776 0.0037806875 -0.0043950435 0.00079398917 -3.8671795e-05 0.0042627547 -0.00018581786 0.006284184 -0.0034790551 -0.0045888727 0.00432438 0.0027944075 0.00066731655 -0.0047308765 0.0031867586 0.0012410874 -0.0057351035 0.0075774123 0.0020598315 -0.0042553055 0.002365672 -0.0023654264 -0.00459817 -0.005773698 0.0026440057 0.004794633 -0.0019592398 -0.0017239966 0.0016084386 -0.002774631 0.0036659595 -0.0017246709 -0.006298281 0.00023463128 0.002704663 0.0020902446 -0.0036590798 0.0007362609 0.004735716 -0.0045774844 0.0056253443 -0.0043804552 -0.00076683913 -0.0018661716 0.00090996304 -0.00015496448 -0.00305501 -0.003990509 -0.0038776307 -0.001471309 -0.0011690757 0.0024284255 0.0007578364 -0.0006817725 -0.0035425287 -5.962285e-05 -0.0051448755 0.004465115 0.0016943605 0.0023467685 0.0031135452 -0.005075562 0.0026692334 0.004447923 -0.006491791 0.0039322753 -0.004408832 -0.0005551204 0.0004421433 0.00041343685 0.0050295675 -0.0014367774 0.0029537703 -9.162289e-05
boris 0.00042167978 -0.00097174343 -0.001579221 -0.001423511 -0.0036370358 -0.0006752585 0.0014057901 -0.0042939843 0.003034572 0.000606728 0.005838928 -0.0010418242 -0.0027041954 0.00930461 -0.00037659044 -5.2825577e-05 0.0026344955 -0.0027263288 0.00104018 -0.002607134 -0.002030817 -0.0007183346 -0.0022437705 -0.0036600665 0.005400224 -0.00063293776 -0.0029169836 0.00053318887 0.0047044815 0.006676054 -0.0075846277 0.00533074 -0.0011513036 0.005934336 -0.00058281154 -0.007449385 7.955552e-05 -0.0009155023 -0.00317903 -0.0015035231 0.005625417 -0.008042338 -0.008237185 0.0057450486 0.00029069697 0.0025421954 0.0034004205 0.0026062657 -0.0048717726 -0.0075104693 -0.0026713656 0.0044161016 0.003365719 0.0029401206 7.515555e-07 -0.0010834286 -0.0010751113 0.002942808 0.000541444 -0.0020201171 0.006469373 0.0052857744 -0.0015461973 0.00042378256 -0.00013046926 0.001028287 -0.0022301157 0.0016977483 -0.00011128133 0.0013055286 0.0017342607 -0.0016655792 0.005328116 0.0001057301 0.0066025136 -0.0029240397 0.0016816234 -0.003190549 -0.0032486713 -0.0004968278 0.002020787 0.0031053051 -0.0051317024 0.0041808723 0.0037656855 0.0007544672 0.0027426938 0.001784577 -0.0007543591 -0.0042126467 -0.0011396512 0.003718874 -0.005154264 -0.007079821 0.002285195 -0.0006893382 -0.002080555 -0.0038703813 0.0002952609 0.0029121612
or -0.0074425363 -0.004613189 -0.0010833732 -3.728344e-05 -0.0025833372 0.006036747 -0.0052850507 -0.0046012956 0.0049205665 0.0072192424 -0.0005999631 -0.007328347 -0.010618574 0.0089104995 0.003330747 0.013407962 0.004125432 -0.0041837883 0.00855389 0.0021926886 -0.0009958018 0.0059386245 -0.0030017227 -0.008299991 0.009840738 0.009239061 0.00807639 -0.003063994 0.0057633584 0.0018393097 -0.00911882 -0.0015773554 0.0057726693 0.006401751 -0.0027289486 -0.00246108 0.000785527 -0.00072622875 0.00033290053 5.5138633e-05 0.00474008 -0.009768789 -0.012759146 0.014924731 0.004776285 -0.000897962 -0.007985845 -0.00022361438 -0.00053304795 -0.011010988 -0.0019407579 0.0070717856 0.0049716453 0.0024495816 0.0031914725 0.009328487 0.0018672635 0.0010251956 -0.0015014953 -0.0008855557 0.0010677692 0.0020060022 0.0020425525 -0.008577679 0.004120194 -0.0036887731 0.00057556765 0.003666681 0.0018182555 0.009515728 -0.00030584977 -0.0024667324 0.0038661908 0.0034038776 0.0029444192 0.0051980186 0.0026482616 0.00637259 0.0034880824 -0.0068027005 -0.0037759675 0.0017133332 -0.008651773 0.0005137862 0.0006526704 0.0051354812 -0.0014584356 0.00037193365 -0.0032997653 -0.0026581157 -0.013322864 0.0008751458 -0.002420136 -0.0043815183 -0.002710061 0.01292109 0.0027969398 -0.008013363 0.0036505323 0.002817514
while 0.0004646175 -0.0039619883 -0.0039151288 0.003087772 -0.00049865147 -0.0013431066 -0.007600012 0.0036792906 0.0027968853 0.0067787026 0.0037639637 0.00024102509 -0.0068623284 0.0053044963 0.004547507 0.009195269 0.00027328145 -0.0035791756 0.011497529 0.003486349 0.0015629029 -0.00047695282 -0.00057633605 -0.0082587665 0.008400343 0.0089620305 0.00121372 0.0023964818 -0.0018177303 0.009209755 -0.011401593 0.0043514147 -0.0002991378 0.00169803 0.0010332908 -0.008748049 0.0056596505 0.0016659206 -0.004817387 0.0005024364 -0.0014650214 -0.012317092 -0.012696818 0.011802908 0.0071324203 -0.0043134214 -0.006156801 -0.0054284316 0.00063879834 -0.0063803904 -0.010119673 -0.00030395595 -0.0042248773 0.0008218325 0.002284359 0.001684077 0.0030523175 -0.003118791 -0.0031554576 -0.004265763 0.007752342 0.0028184087 -0.00087687135 -0.002089148 -0.0037356585 -0.007988227 0.0038551297 0.0024849493 -0.002088289 0.008951622 0.0030873683 -0.002798389 0.0026154474 -0.0025522788 0.0060637644 0.0014904697 0.0016019664 0.0034371433 -5.2451207e-05 -0.0038528247 -0.00051503006 -0.00052286393 -0.007862537 0.0023233998 -0.0016978796 -0.0030170355 0.0028553563 0.0011022144 -0.0033792115 0.0023814286 -0.0050820317 -0.0008926121 0.0009774461 -0.00040612876 0.003221848 0.010434219 0.007482379 -0.009717806 0.0004461811 0.0030168272
new -0.007962559 0.0028162473 0.0032487428 0.00033996016 -0.0018107039 -0.0014514192 -0.004468497 -0.0016132123 0.009693758 0.007076206 -0.0021471854 6.357168e-05 -0.015114461 0.0099616535 -0.0025773554 0.016123481 0.010336865 0.0049817795 0.009537744 -0.0049597686 0.00064078765 0.0028545035 -0.0016450835 -0.0035889905 0.009589274 0.009190959 0.0069496823 -0.00539396 0.0055178115 0.005978877 -0.014772759 0.0013622935 0.005271517 0.0045865085 -0.0017019844 -0.009408578 0.0071656373 0.0014770332 -0.0061311624 -0.0059581087 0.0020373664 -0.0138064455 -0.017027974 0.016831039 0.002107476 -0.0024942432 -0.0031635961 -0.006060208 -0.005530817 -0.008327234 -0.009418921 0.0068856613 -0.0030091093 -0.0021736557 0.011173485 0.006320885 -0.00083135004 -0.0035556809 -0.0060622385 -0.003952865 0.008516405 0.003755281 0.00087445637 -0.008036176 0.0033625108 -0.009733848 0.0030265327 0.005179245 0.00035567267 0.008668018 -0.0017862717 -0.0061297854 0.0049461536 -0.0032704338 0.009556146 0.0046520303 0.0031774344 3.1063784e-05 0.0026983938 -0.012668168 0.0050388854 0.0026814016 -0.008031904 0.0068319077 -0.0039693103 -0.0017670237 -0.0021960419 -0.006869497 0.0028297284 -0.00044356237 -0.012491977 -0.0010483422 -0.0034908573 -0.0104345605 -0.004979091 0.016188154 0.0075750356 -0.013351997 0.006410546 0.00656951
eu -0.00067350647 -0.0050634714 0.00038696066 -0.0026050694 -0.0016866551 0.00023717879 -0.0065836725 -0.004874209 0.0058365287 0.005267476 -0.00193608 -0.005255346 -0.0074244495 0.008250948 0.005036592 0.010503847 0.007218924 0.0010852579 0.0029482106 -0.0012061727 -0.00559629 -0.0022546602 0.001195231 -0.007913406 0.009598759 0.0034945947 -0.0010696637 0.00013210633 0.0024914155 0.0024306593 -0.008731226 0.0006458123 0.0019006699 0.0048006037 -0.0032410268 -0.003433095 -5.190182e-05 0.003333199 -0.004463029 -0.0064493273 0.0022428932 -0.012041727 -0.012756041 0.012817108 0.001304716 -0.000113086055 0.0007767164 -0.002854916 0.0014680261 -0.0049475366 -0.004791058 0.005282625 -0.0016906185 -0.002859799 0.007671073 0.003213163 0.0020585426 -0.0048428345 -0.007794692 -0.0025359227 0.0036825237 0.0026192253 0.0017426398 -0.0011555119 -0.0034646066 -0.00035816582 0.009511512 0.0040319157 0.0029159614 0.001966248 0.0060528843 -0.0028572907 0.0040243287 -0.0052238824 0.0069178506 -0.0004254706 0.0076123397 -0.0002714093 0.0011718326 -0.003419535 0.0020351186 -0.0028344945 -0.0043885494 0.0035160831 0.0032892665 -0.0014475908 -0.00046370487 -0.0035143795 -0.0007049936 0.002438156 -0.0036716366 0.0052866824 0.0015523129 -1.28055035e-05 0.004043747 0.008503221 -0.0003072794 -0.00817716 0.0048182597 0.005083264
months 0.00031294132 -0.0043806364 -0.0006938076 -0.0024863316 -0.0018275409 0.0031637398 -0.0006829662 0.004086296 0.00052252115 0.004548413 0.0032108012 -0.0042956215 0.0007279357 0.0049888063 0.0018270842 -0.00041170712 0.0069737397 -0.0042898715 0.0021524164 0.0024546771 -0.0026703035 0.0010828909 -0.004247106 -0.006037979 0.008473345 0.0034729028 -0.0009232447 -0.0016877637 -0.0011574982 0.00059477467 -0.008388371 -0.0013638145 -2.2322538e-06 0.0058999415 -0.0012808027 -0.0017616035 0.0038569055 0.0007493857 0.00062846043 -0.003756494 0.0027486612 -0.007065232 -0.005639837 0.007614207 0.005185535 -0.0028768652 0.0018128166 0.0020392898 0.00287542 -0.004424309 -0.0047314563 0.0004511743 -0.0011247693 0.0044905646 0.00753118 0.0015995876 0.0023338133 0.003669244 0.0009964039 -0.0024444032 -0.00040332184 -0.003513568 0.0038164211 0.0009019385 -0.0034826663 0.002436647 0.0031269018 0.005851628 0.002582204 0.0049960106 0.0060093887 -0.003932415 0.0062106075 -0.0039377664 0.00383923 -0.0020703524 0.0039029433 -0.0017840137 -0.00018079886 -0.0026730571 -0.00030189363 0.0031342322 -0.0072030583 0.00503252 0.0032749835 0.004329821 0.0035998228 -0.0045675226 -0.0037403319 -0.0027240426 -0.006053095 -0.0008457553 0.00096055155 -0.0071909586 0.0010544828 0.00086880114 -0.0032551389 -0.006275016 -0.0041710767 -0.002243144
about -0.0066062366 -0.0050813355 -0.0016694224 -0.0031585826 -0.00036417574 0.00047957353 -0.0038985622 -0.00070074096 0.013735912 -0.0003039488 -0.0004934525 -0.001499806 -0.007550644 0.0119141145 0.0044165263 0.010443812 0.0052057724 0.005558097 0.011490138 0.0008925915 -0.005773751 0.004231845 0.0033507126 -0.005612496 0.01633176 0.008889592 0.00442009 0.0019420374 -0.00059611443 0.004441434 -0.0150879305 -0.0013622387 0.005393383 0.007636823 -0.0007036004 -0.007875167 0.0025598959 -0.0044437307 -0.0016126896 -0.004494222 0.007880852 -0.013491299 -0.012773496 0.013753261 0.0048060594 -0.0035894457 -0.0001912921 -0.006628963 0.00042705395 -0.004473645 -0.0034736493 0.0066789864 0.0047777444 -0.0039014237 0.010575348 0.009498133 -0.0032781316 -0.002999493 -0.0073453127 -0.0036666254 0.0076293163 0.00029256084 -0.0052552763 -0.0036400072 -0.00082078855 -0.0051605194 0.0012777083 0.0018914094 0.00034705224 0.009862372 0.00015601102 0.0016363057 0.007542711 -0.003022825 0.00046589712 0.0077000116 0.0036569159 0.001043243 -0.0010255735 -0.010458073 0.005004166 0.0026522758 -0.013317966 0.005576214 0.003011826 0.0041433964 0.004911027 0.00029847058 -0.0062056934 0.0020081557 -0.013547767 -0.001300452 0.0022208036 -0.011248873 -0.00092189416 0.015515224 0.0088252 -0.0044336016 -0.00073252607 0.0068787853
after -0.006611055 -0.0032076903 -0.0025024386 -0.0040759877 -0.0069539757 0.00534652 -0.0047927015 0.0023196184 0.015186412 0.0024296832 0.0020509947 -0.00880554 -0.0068311486 0.011529046 0.00313428 0.0171273 0.01168812 -0.00028268158 0.006397447 0.0005490523 -0.00046375697 -0.0013477389 0.0025177582 -0.0008021151 0.013570161 0.007703206 0.0017005696 -0.0005592094 0.0056099393 0.007913589 -0.015444791 0.003790481 0.008488332 0.0060491334 0.0021465402 -0.008769573 0.006765984 -0.0019743603 0.00078949303 -0.007170941 -6.709746e-05 -0.0069634803 -0.019315768 0.007850066 0.007321446 0.000495192 -0.00807141 -0.005492825 -0.0012166998 -0.0053948313 -0.00959285 0.008123855 0.0002615281 -0.00030668647 0.007411996 0.008208317 0.0013150431 0.0025545685 -0.010288403 3.3802768e-05 0.0029576602 -0.00170348 -0.002507745 -0.0038457462 0.0011494159 -0.0018622509 0.006740591 0.00673456 -0.0041044685 0.009303903 -0.00053722213 -0.006067574 0.004932846 0.0029980806 0.0058674226 0.005513586 0.0018913287 0.0020541828 0.0026515643 -0.01348629 0.0055522565 5.9750237e-05 -0.015443788 0.004270791 -0.00087039877 0.0048805606 -0.0038434432 -0.0033471445 -0.0007887288 0.0048921616 -0.013540808 -0.0028753243 0.002619115 -0.008575771 0.0020981843 0.012559843 -0.00020149973 -0.0043749907 0.0013874962 -0.0014594112
who -0.009897922 -0.00026780428 -0.002702193 -0.00027726963 -0.008016473 0.008822691 -0.007997407 0.0029149493 0.013880614 0.0037502113 0.005874029 -0.0087550115 -0.016675012 0.018429004 0.0027549418 0.018790692 0.008373368 -0.00046420595 0.018076869 0.0017132459 -0.0041612973 -0.001661338 0.0009567474 -0.009076176 0.015001761 0.010869615 0.0064056735 -0.0050582457 -0.0016654264 0.0062464746 -0.01943241 0.006158492 0.0030972122 0.004711343 0.00038793695 -0.007898774 0.01221614 -0.006288242 -0.006563055 -0.00805969 0.004681127 -0.012431579 -0.017871728 0.016277345 0.0016573234 -0.002788544 -0.0062610568 -0.003985895 0.0019303022 -0.014947528 -0.006353108 0.0061915778 -0.003371335 0.0013691321 0.0071120365 0.008140276 -0.002261369 -0.0008233322 -0.0041284435 -0.0013670261 0.0015345251 -0.0014025185 -0.0035758845 -0.002839195 -0.00043313566 -0.0064125243 0.012902872 0.006753921 -0.0047407895 0.005106478 0.0039474973 -0.0030626948 0.004472238 -0.0019191352 0.0106498385 0.0065365266 0.0130127035 0.0037377616 -0.0035090523 -0.01564217 -0.00089035375 -0.0030221909 -0.010863725 0.0029731323 -0.0040704017 0.0041517103 -0.0024447388 -0.0056380513 -0.0065174093 0.0036817403 -0.01817701 0.0053840936 0.00146339 -0.010714373 0.0027007419 0.015981665 0.0017640272 -0.008392382 0.007612156 0.0020028758
back -0.006339015 0.0015738426 -0.0016240877 -0.003547388 -0.0002890378 -0.0008676369 -0.006694092 -0.002480396 0.0075255097 0.0044162706 0.00011352586 0.0023126586 -0.0031950672 0.0025904917 -0.0033081383 0.01128236 0.0028035617 -0.0034569139 0.0024131408 -0.0029319515 0.0016617001 -0.003530629 -0.0016707893 -0.006954768 0.0057207947 0.0005831264 -0.0003891416 0.004383961 -0.0009604779 0.0020725569 -0.007519201 0.0020865798 0.0056813527 0.005851891 0.002486974 -0.0011659663 0.00012747145 0.00031419503 0.0034079503 -0.000579577 -0.0028703157 -0.010545757 -0.008178938 0.007941591 0.0043662367 -0.005777757 0.0014462752 -0.0035390574 -0.001960666 -0.0016158494 -0.008782404 0.005836225 -0.0039021408 0.0034853634 0.008687474 0.0027789958 0.004382751 -0.0043082833 -0.007630533 -0.0020581796 0.00083681964 0.0003852045 0.00262804 0.00022669138 -0.0027774016 -0.002762902 0.0027343824 -0.0017336428 -0.0024434382 0.0015785526 -0.0011748951 0.0018885244 -0.0015102415 -0.004530284 0.007167444 0.000893926 -0.0010004885 0.00068407104 0.0037955309 -0.0046427636 -0.0035484247 -0.003338289 -0.007671096 0.006718975 6.1181854e-06 0.0055367807 6.078106e-05 -0.00050900935 0.0024748074 0.0038932231 -0.009968983 -0.0031540003 -0.0044330033 -0.0017779125 0.0012634916 0.0069724126 0.006341687 -0.002861061 -0.0014959808 0.004902997
people -0.008680466 -0.0032743542 -0.00023747305 -0.0028419164 -0.005028663 0.003141154 -0.011338896 -0.0026237245 0.010943345 0.005021636 0.00616463 -0.009141518 -0.013122413 0.01338109 0.004232135 0.009017407 0.008631389 0.0022079714 0.007049174 -0.004959537 0.0027588587 0.002555794 -0.0013351903 -0.0049576755 0.013735808 0.00977298 0.005072769 -0.00013510977 0.004924808 0.0023589705 -0.014033548 0.005620284 0.0040619993 0.009811151 -0.003696561 -0.0059237713 0.005593517 -0.003154046 -0.0007113204 -0.00055445504 0.008002422 -0.0117719425 -0.020904273 0.012622674 -0.0014356314 -0.0076886686 -0.0005867618 -0.0046165036 -0.006229864 -0.013105541 -0.008345882 0.00690733 0.0016109924 -0.0012835832 0.0037435426 0.007416348 0.0058827256 -0.0009130119 -0.0070268186 -0.0039790063 0.004794107 -0.000114314884 -0.0051033366 -0.0061926106 0.0034086057 -0.00085224124 0.00221156 0.0041049793 -0.006599781 0.004893964 0.003189869 -0.0020038274 0.0089936685 -0.0019418928 0.003339794 0.0055881706 0.0057219453 0.003827915 -0.0017892203 -0.007232549 0.0012577217 -0.004250309 -0.015560222 0.00513837 -0.002326425 0.00071332057 0.0002833347 -0.005835132 -0.003988485 -0.0034602017 -0.005472543 -0.001452291 -0.0032484578 -0.0034150833 -0.0050591836 0.013722688 0.006565653 -0.005902598 -0.0021760468 0.00014495438
into 0.00032660647 -0.0027429694 0.00069097604 0.0020577782 -0.0017966608 -0.002842515 -0.004818155 -0.0012812035 0.0073559624 -0.002633704 -0.0034771226 0.00032328168 -0.0045286207 0.0071733654 0.0058498806 0.010828769 0.006216601 0.0014244532 0.0003966631 -0.0014968907 -0.0034491601 -0.0026987663 0.0050158747 -0.005068857 0.0017594604 0.0030971046 0.0033071754 -0.0020902243 0.005441939 0.007532329 -0.007456292 0.0057479846 0.006857777 0.00035156537 -0.0017989175 0.00050342636 0.0019333346 -0.001741877 -0.003148091 -0.0066596135 -0.0015346827 -0.0012855635 -0.0089885285 0.008003512 -0.0021182245 -0.00041952694 -0.0002968945 -0.0016486989 0.001006936 -0.007907636 0.0012179982 0.0062678256 0.0014278544 -0.00053696305 0.0013212597 0.0036821591 0.0021549899 0.0007862718 -0.005645169 -0.003430751 0.00047367287 0.0010760213 -0.005422017 0.0025110666 0.00097396265 0.001832466 0.005016885 -0.00067035673 -0.0015089331 -0.00023879143 0.0032441216 0.0023255078 0.00483652 -0.00017146028 0.005634207 0.003126389 0.0047157435 0.0037163373 -0.0031641184 -0.00083022256 0.0014190181 -0.0044393977 -0.009988644 0.004991651 0.0032288255 -3.6363796e-05 -0.001482362 -0.0026488248 -0.004106212 -0.002167955 -0.0016842849 -0.0010493641 0.002797338 -0.0032656337 0.002971314 0.0023156148 -0.001701269 -0.007223367 0.00504276 0.002323463
minister -0.007487509 0.0044598826 9.037501e-05 0.0037222481 -0.0026832903 -0.0028400961 -0.006525646 -0.00061655417 0.0018914195 -0.0020239947 0.005639689 -0.0028590027 -0.006558092 0.0040403125 -7.419598e-05 0.0035108787 0.0005043727 -0.0034125766 0.0018181569 -0.0019235278 0.0035697848 -0.00046759832 0.003558468 0.00059427595 0.0018248868 0.006044862 0.0065756324 -0.0010951952 0.0019854533 0.0028214254 -0.008198621 -0.0032429765 0.0026433787 0.0073081465 0.0005081061 -0.0066711456 -0.0019306052 -0.0015137398 0.0040344116 0.0025716785 0.004616486 -0.0061895526 -0.0054343473 0.00818014 0.0017050278 0.0006833292 0.00197674 -0.005810296 -0.003600603 -0.00021334396 -0.0032141618 -0.0017507096 -0.0025217764 -0.0030262987 0.002602588 0.007420107 0.0020043137 -0.0057759583 0.0014821697 -0.001148071 0.005355161 0.0015565513 0.003973337 -0.0021919867 0.0003817922 4.5185167e-05 0.0055392226 -0.0004211617 0.00034796254 0.0044948794 0.0026547827 0.0010727105 0.0045886883 0.0038239216 -0.0015581726 -0.0030413973 0.007078542 -0.0034639055 -0.0019328035 -0.00070908066 -0.00086462643 -0.00036605922 -0.008408279 0.0006955138 -0.0010406303 0.0027735736 0.0018164815 -0.0034784582 0.00066754426 0.004786248 -0.0054058647 -0.001672088 0.0042299726 -0.0052665486 -0.0021345632 0.005142306 0.001450617 -0.0030325686 -0.0011208091 0.0054356214
would -0.0047399956 -0.0035261388 0.001175999 -0.00025005577 -0.006371969 -0.000418965 -0.005342599 -0.0029416296 0.0055991425 0.0035718235 -0.00077553006 0.0008882018 -0.005124704 0.0073734405 -0.00015309201 0.008284088 0.004903285 0.0028129604 0.0047670435 0.0017883175 -0.005055263 -0.00019649076 -0.0026742215 -0.0010621774 0.008091796 0.0060449312 0.0025288118 -0.0039315396 0.002098994 0.002772124 -0.0049217134 0.005160354 0.004297354 0.0024261489 -0.0015403285 -0.008778413 0.0065797125 0.0016050444 -0.0032394745 -0.0059414227 0.004127401 -0.0056230123 -0.014118811 0.007740728 -0.0008557432 -0.0027438127 -0.004190967 -0.0027303675 -0.001045737 -0.011510363 -0.005640124 -0.0023011232 0.004586382 0.0024945682 0.009018899 0.0022270435 0.0029179452 -0.0015110609 -0.0017348228 -0.00030528818 0.0040030484 -0.0003393708 -0.0013359917 -0.0002803473 0.005313126 -0.007303858 0.0037872598 0.0065854364 -0.002667322 0.0032323834 0.0039792033 -0.0055536684 0.0010311244 0.0037606142 0.0009639443 -0.00039346295 0.005749971 -0.0013950198 0.004445857 -0.0070128045 0.003558882 -0.0045576203 -0.007955937 0.0024647769 -0.004751924 0.0062828828 0.00020611685 -0.00026335396 -0.002609854 -0.0004392732 -0.0060574478 0.003324733 -0.004429 -0.009628493 0.0019524548 0.008945261 0.0035265828 -0.008706729 0.005846437 0.005237936
which -0.012681693 -0.0053597675 0.00095898705 -0.0037576102 -0.0104175005 0.0040654587 -0.009606922 -0.005097406 0.017980995 0.009203254 -0.0001701486 -0.009625781 -0.019137714 0.026232045 0.0029790837 0.024197819 0.010007643 0.0005703407 0.020479009 -0.0046448987 -0.00371752 0.0023182407 -0.001639139 -0.013251389 0.022840878 0.015200282 0.008536152 -0.0008822159 0.0003337571 0.0070928824 -0.016361216 0.007788774 0.0088266805 0.009477737 -0.0024672346 -0.009476896 0.013712649 0.0020931126 -0.004530026 -0.008106383 0.0041245185 -0.023031276 -0.030873746 0.016070137 0.00738089 -0.010931867 -0.007854198 -0.0019321421 -0.006076377 -0.01605493 -0.00975052 0.0030848717 -0.003959733 -0.0015886499 0.010668175 0.012922008 0.0039235256 -0.0072839404 -0.011568637 -0.008413991 0.012321652 0.00902847 -0.001274952 -0.0077886446 -0.0019227499 -0.008519539 0.005645634 0.0053052013 -0.008083839 0.008095046 0.0011473619 0.0017409138 0.005002474 -0.0011296542 0.011696084 0.011747068 0.012528578 -0.00010405196 -0.0032067867 -0.017289124 0.0015776377 -0.0021295531 -0.021836571 0.0067201676 -0.0024826343 0.003364381 0.0046897405 -0.006776333 -0.0033603143 -0.00051312224 -0.01703767 0.0042952457 0.004563277 -0.013743135 -0.0051667294 0.02026183 0.011502734 -0.0197251 0.0014218211 -0.000100007535
chinese -0.005807905 -0.0009271359 0.0032761644 -0.001307649 -0.0002565406 0.0055927257 -0.0026218712 -0.0001341027 0.008471896 0.0042672586 -0.0035586455 0.00020167779 -0.010300832 0.009118093 -0.0007204027 0.006540544 0.0072615054 0.004964138 0.010195083 -0.0009643212 -0.00035850517 -0.00050146953 -0.0030812891 -0.0018746052 0.0113412095 0.002522132 -5.3939035e-05 -0.0055221976 -0.0033334966 0.0027934497 -0.0034234368 -0.0022388108 0.0045721796 0.0055417493 0.0027074346 -0.0021229638 0.00016983018 0.0018816406 -0.0026220528 -0.0046430808 -0.00088631967 -0.004830269 -0.011436123 0.00676074 0.00048128195 -0.0062027858 -0.0031589395 -0.004458183 -0.00070494553 -0.0012963212 -0.0022451018 0.0062795244 0.0020214918 -0.0018082584 0.008953471 -0.0005085899 0.0005166212 -0.004278515 -0.0062916307 -0.004649744 -0.0017459263 0.0036226956 -0.0026535306 -0.00050074304 -0.0011205125 -0.006789809 0.0010160692 3.8114995e-05 -0.0061803795 0.000116880765 0.0002152301 0.0037562624 0.0041283616 -0.0026013248 0.004056326 0.0004553243 0.006531569 0.0031113648 -0.0033173852 -0.0110331895 0.00023024192 0.0038439932 -0.011769687 0.0074192276 0.0005025992 -0.0025095835 -0.00030363223 -0.0074732727 0.0013523446 0.003285151 -0.0087915035 0.0032818143 -0.0034691272 -0.001150178 0.0031929354 0.0068948003 0.0061658784 -0.00866518 -0.0035893614 0.004644373
some 0.0011580972 -0.002513104 0.0046899067 0.0010174194 -0.0056624 -0.0029690957 -0.003560106 0.0011115433 0.0025971984 0.0012793511 -0.0021766343 -0.0063222996 -0.00892941 0.006867118 0.00013012276 0.0032455167 0.0016226426 0.004586028 0.008167871 0.003608086 -0.0036827272 0.00076608395 -0.0039809775 0.0014309153 0.0036670459 0.007325039 -0.0001286807 -0.0028518944 -0.0029078166 0.003175898 -0.009327399 -0.000491115 0.006226614 0.00027094854 0.0018886103 -0.009415735 0.003192867 0.0017553968 -0.00034712683 -0.00043465538 0.004857725 -0.0043473975 -0.012850442 0.009062257 -0.00022497909 -0.002161124 -0.004416139 5.4886214e-06 -0.0052951053 -0.003654955 -0.0007352282 0.0013723238 -0.0040207985 0.002052684 0.008809904 -0.001111528 -0.0029011986 0.0034956094 0.00024079611 -0.0019190129 0.0021153234 -0.0030222286 0.0032713367 -0.0034926832 0.00015038328 -0.0027959123 0.00058241707 -0.002564615 -0.0017603296 -0.0004989894 -0.0036368833 -0.0055159396 0.0014858687 -0.0053837313 -0.00026598695 -0.0012643165 -0.0014630635 -0.0015635797 -0.0030729612 -0.0073282686 0.0035197383 0.0031977817 -0.005618786 -0.0022096767 -0.00083917286 0.0028774512 0.0009358467 -0.0007003027 0.0020230738 0.0040615126 -0.010190588 -0.0006869135 0.0039011005 -0.005637424 -0.004151907 0.005615719 0.0014269534 -0.0016619673 0.0016854126 0.004379488
when -0.002272403 0.00026531564 0.0023469282 0.0009825064 0.00031270683 -0.00013565934 -0.0076301894 -0.004691254 0.008167079 0.00254294 0.0006307 -0.004755895 -0.0020834124 0.002165115 0.0027423096 0.0033294943 0.0021790976 0.00471408 0.0060468507 -0.004962068 -0.0030363647 0.0023555092 -0.0033642035 -0.0032285682 0.00751556 -0.0013557253 -0.00063487556 -0.00067355577 0.0030976322 0.00471957 -0.0022687623 0.0040828534 0.0024433003 0.0019952063 0.0029955325 -0.006759828 -0.0024177756 -0.0026287376 -0.0041225553 -0.0022245885 0.0031136752 0.0004977541 -0.007515116 0.0025305848 0.0015168063 -0.004655428 -0.00026360364 0.002578617 -0.0010701005 -0.006241427 0.00061372266 -0.00027161444 -0.004549373 0.0031471613 0.007108977 0.0019472478 0.005391869 -0.0056367298 0.0011651341 0.0024644374 0.0015283098 0.005584228 -0.00095423165 0.0004618616 -0.004133718 -0.0035851607 0.0059218477 -0.0021800974 -0.00058395864 0.0016998871 0.0026239238 -0.0013442276 0.0067092087 0.000107500244 0.002755027 0.003459909 0.007231648 -0.0028056633 -0.00421554 -0.004605223 0.004666326 0.0025275843 -0.002247865 -0.0034418176 -0.0030456295 -0.00017983317 0.0013748866 0.0011816872 0.0018427742 -3.2436901e-06 -0.004907158 -0.002046785 0.003954431 0.0004278028 0.0035895226 0.0009491571 0.005366773 0.00029517186 0.0015871235 0.005397465
health -0.003588609 0.0007111612 0.003986973 0.0034953756 -0.008649928 0.0071677896 -0.0020040132 0.0037449647 0.0057975603 0.0019133479 -0.002838786 -0.0046724556 -0.0071154945 0.010464158 0.003499288 0.0061563705 0.009501007 7.8300254e-05 0.006665619 0.00023476212 -0.00502009 -0.0036670405 0.0020675808 -0.000996889 0.007254299 0.0070537217 0.0024693487 -0.0033289103 0.0032844348 0.0072621075 -0.010759896 0.0035231167 0.008878753 0.0072006206 0.0026856505 -0.008461898 0.0063053626 0.0017842946 -0.0031072572 -0.0012571099 0.0056769685 -0.007872957 -0.014971337 0.007875431 -0.0018450201 -0.0042371536 -0.007697886 -0.0019340201 0.0032454045 -0.0048764693 -0.0022887122 0.0032970195 -0.0024985918 0.004151067 0.007970031 0.00012644012 -0.00044938753 0.0032965266 -0.00039213963 -0.000924977 0.0009607062 0.006201853 -0.0046093604 -0.007309046 0.0050822147 0.0015934769 0.00937073 0.006589771 -0.0035180526 0.0034048469 0.00608492 -0.0020297798 0.0049067424 -0.0036341387 0.0067910156 -0.0011946183 0.0030654331 0.005349768 0.0023914706 -0.0110573955 -0.004263239 -0.0014610261 -0.0139255775 0.0060132174 0.0012658727 -0.0011897747 0.004672838 -0.0021656454 -0.0016284941 0.0035424684 -0.0075932546 -0.0010876808 0.0018973296 -0.0028764626 -0.00017001445 0.009865866 0.005381706 -0.004117136 0.006298561 0.001343381
no -0.0011310076 -0.0018199777 0.004787666 -0.003956847 0.00072019995 0.00071268185 0.00066747545 0.004549111 0.007014363 0.0058193486 0.0039020109 -0.0002245666 -0.008067204 0.009575719 0.00070887234 0.0025904817 0.0028003615 0.0018616604 0.0049948734 -0.0025709954 -0.0008667665 0.0029151428 -0.0043029827 0.0028025603 0.0031420733 0.0018235438 0.0063895234 0.003127564 0.00067936385 0.0046025547 -0.006336814 0.0018664197 0.005690424 0.007098951 -0.0033314214 -0.0031140235 0.0021045487 -0.0049901837 -0.00020751782 0.0017862482 -1.5947306e-05 -0.0032949874 -0.0075981175 0.007908849 -0.0019569297 0.0019431702 0.0002743494 0.0014790536 -0.0009828531 -0.00657367 -0.005968084 -0.002340046 0.00015148547 0.005338565 -0.0006245853 0.0013554893 -0.0010616663 0.0026316808 0.0005516321 0.0011495426 -0.0028640793 0.002433714 0.0006282364 0.0027896662 -0.004305046 7.364791e-05 0.0022030314 5.8754045e-05 -0.00600361 0.0018185374 -0.0006910099 -0.0013524642 0.0023810847 0.0039771767 0.0059133666 0.0021704782 0.005347322 0.0011409459 0.00440822 -0.006692558 -0.004808483 0.00026741464 -0.0004813196 -0.00023154485 -0.005352197 0.00042356967 -0.0030452975 -0.00283746 -0.0052172886 0.0026924915 -0.005470479 0.005002589 0.0026557562 -0.000400847 0.0024719595 0.007965671 0.0048502614 -0.000809722 0.003035364 0.0024115925
johnsons 0.0021703604 0.003404998 0.003845554 0.00453672 0.0029795386 0.0011675152 -0.008220304 -0.0036984643 0.005191082 0.0041365977 0.000778058 -0.0027517888 -0.0064223097 0.009663059 -0.0010723746 0.007965597 0.0022334591 0.0028099592 0.004257135 -0.003747247 4.2993706e-06 0.00074646814 0.0020149648 0.0002616955 0.009345078 0.0050328155 0.0067141345 -0.005363837 -0.0014633376 -0.0026072164 -0.002918631 -0.0021489752 0.0025997444 0.005252424 0.0022291606 0.0010490451 0.0041256384 -0.0038596536 -0.0038347812 -0.0027753992 0.003507496 -0.0015391895 -0.010830475 1.0845769e-05 0.0009950681 0.0030952517 -0.0012424832 0.00081332953 -0.0028281487 -0.007911554 -0.004893501 0.0003586878 -0.002572604 0.0011071577 -0.00090111233 0.0063950093 -0.0002025909 -0.000155141 -0.003939122 0.0024013831 -0.0015730383 0.0054029664 -0.0052878484 -0.0063903076 -0.0017009204 0.0003118244 0.0025859638 -0.0023627614 0.0034705624 0.00675045 -0.0029110317 0.0011801966 0.00083906966 -0.00084937597 0.00082576607 0.0014020164 0.0042830515 -0.0014252907 -0.0043468126 -0.00057538116 -0.0019321102 0.0014224355 -0.00073498324 0.0028313345 -0.005267264 0.00083357026 0.0006028707 0.0031716186 -0.003336031 3.2497133e-05 -0.0059724087 -0.003006003 0.001710788 0.00040172038 -0.0029381714 0.003721506 -0.0010193746 -0.0030960941 7.852136e-05 0.005399632
announced -0.004185013 0.0026781845 -0.00013294615 0.0038168288 -0.0046084765 -0.0017880014 -0.0093349805 -0.0027100348 0.004882692 0.006212385 0.004719821 -0.0034224913 -0.0086750835 0.008483921 0.0026785585 0.012213863 0.001590893 0.000303394 0.010963806 0.0036187023 -0.0053458284 0.0011407473 -0.0036744897 -0.00038364567 0.010542264 0.00607908 0.006245163 0.0017814398 0.0048299995 0.0051029013 -0.0038396437 -0.002628805 0.004804675 0.00087365805 0.0015926702 -0.0056837886 0.0056656366 0.0034754665 -0.0049486444 -0.00019602658 0.00588929 -0.006295607 -0.008938089 0.011923676 0.0063350694 -0.0013607999 -0.0018482592 -0.002892619 -0.0041063842 -0.009103638 -0.009497174 0.0068447646 0.0044519487 -0.0030031954 0.0029783782 0.003974341 -0.002156372 0.0025792979 -0.007059342 0.000943758 0.0063029146 -0.0024493393 -0.00508277 -0.0029544008 -0.00035615344 -0.005979142 0.005296836 0.00648686 -0.006479354 0.0003762467 0.0059602177 -0.005407548 0.0061903084 9.173209e-05 0.004483561 0.00017073151 0.004398706 0.0054971315 0.0035582415 -0.0049762446 0.0040059183 -0.0008616056 -0.004196829 -0.0021566798 -0.00537961 0.0017894667 0.0036692696 -0.0043593305 -0.00535707 -0.0005383394 -0.007269674 0.00437363 0.0019651381 -0.008525119 -0.0021788166 0.00990579 -0.0023924052 -0.008918153 -0.002801665 0.0007496855
brexit 0.001857799 -0.0022492148 0.003745345 -0.0035095916 -0.0048110737 -0.0008765135 -0.007370583 -0.0024451583 0.0067965984 0.0036986752 0.001110359 0.00072874635 -0.0076486496 0.00902257 0.004358058 0.0022487917 0.0012752174 -0.0040186127 0.006079006 0.001994419 0.0014976513 0.0026706709 -0.0008249306 -0.0054455874 0.010880494 0.000813231 -0.0007414497 -8.375993e-05 -0.000671186 0.0039662225 -0.006995839 -0.002044898 0.0067565637 -0.00014821904 0.00062136445 -0.004855366 0.003655551 -0.0011034032 -0.004135484 -0.0024592846 -0.00020303436 -0.004009774 -0.004208735 0.009521864 0.006021369 -0.006215133 -0.0038765364 0.00069252827 0.002509816 -0.0022994215 -0.005920508 -0.0026240998 0.0021184797 -0.0014016026 0.004395516 0.0058756135 -0.0013692175 0.0019831087 -0.005579017 0.0009877377 -0.0015941906 0.0021298989 -0.0014446032 -0.006780136 -0.003172268 0.0015251854 0.004878797 -6.1790284e-05 -0.0043219114 0.0021775565 0.0036396915 -0.0027250908 0.0071688257 0.0011448701 0.004611531 0.0007716608 -0.0003838954 -0.0014170033 -0.0014395325 -0.0027492219 -0.0020181162 0.003833014 -0.00892116 0.00029020268 -0.0038238566 0.00089298096 -0.0009989447 0.0007178017 0.00252194 0.0018629433 -0.00843727 0.00142351 -0.0011584872 -0.0073578055 0.0027048397 0.00059359556 0.0040258053 -0.0033117968 -0.0013913694 0.003963274
china -0.005315978 0.00025776937 -0.00065157324 0.0047833663 -0.0023353214 0.002237047 -0.0010490032 -0.0006776371 0.009183919 0.0069012763 0.003080172 0.0004884207 -0.0027506917 0.0052948203 -0.0005990801 0.0119598685 0.0055461777 -0.0034535187 0.008681158 -0.0010202134 -0.004426605 0.0042671077 -0.0012346827 -0.0036778022 0.007942861 0.004915253 0.002914838 -0.004924105 0.0047237356 0.0029927646 -0.009582856 0.0032687236 -0.00015923653 0.0033233168 0.0011702819 -0.0072941124 -0.00085389544 -0.00085189345 0.0026430788 5.5030287e-05 0.0019041733 -0.0092489505 -0.0057632076 0.009682128 0.0056613223 -0.0016798064 -0.005973795 0.0020449597 0.0004016636 -0.004864342 -0.0064031575 -0.0010525337 -0.0009918667 0.0007634017 0.0045934245 -0.00077106105 0.0023055256 -0.0007487066 0.00081412133 0.0032064074 0.0059766606 0.0017550805 -0.006001339 -0.007203604 -0.0022660776 -0.0014782659 -0.00059436256 -0.0020363356 -2.4685134e-05 0.00019519948 0.005588072 0.0031233248 0.006263402 0.0020486964 -0.0020701757 0.003405114 0.0019629986 0.002704697 -0.0042942837 -0.01021108 -0.001570345 -0.00033607244 -0.009739185 -0.0013968501 0.0023808698 -0.0018490786 -0.0012569762 -0.0017437629 -0.0041732485 -0.0035146335 -0.003574786 0.0013409944 0.0021751695 0.0003251331 0.0015549035 0.011838646 0.0043619974 -0.008770574 0.0012528374 0.005722023
may -0.00058865873 -0.005314274 -0.0031068195 0.00040969663 -0.0034467294 -0.0010969641 -0.008234479 0.0014797804 0.005468893 0.001211106 -0.0027781972 -0.0065126675 -0.0018676899 0.010305292 0.0042012054 0.007796917 0.0033889227 0.0007729855 0.011989565 0.0028799926 -0.004936849 0.0043489253 -2.7883667e-05 -0.0035914918 0.011027645 0.0026977712 0.002679153 0.0033636447 -0.0006926351 0.0022323197 -0.0059208 0.00092564547 0.0018077276 -0.0004814493 -0.0047165575 -0.010682059 0.0040504197 -0.0038278433 -0.002021457 -0.0053888983 -0.00043305653 -0.012583091 -0.013201471 0.004821834 0.0018189852 -0.0025581522 -0.0011100748 -0.00392081 0.0016779721 -0.00837786 -0.0021117935 -0.0009384773 -0.003951604 -0.00093309366 0.008986631 0.00280434 0.0014269125 -0.00029036653 -0.006147634 0.0021041504 0.007467892 0.006197627 -0.00025358153 -0.0068541155 0.0050208396 0.0008081231 0.006917704 -0.0030418548 -0.006276471 0.0058255424 0.0031457613 -0.00489227 0.0020809527 -0.005030127 0.0011367667 0.0014906619 0.008675371 0.00055147253 0.004218666 -0.0059955227 0.004654247 -0.0043453295 -0.011587793 -0.0015265468 0.003001278 0.004931191 -0.0014392383 0.0007838763 -0.0015880343 0.00080604857 -0.006396264 -0.002951635 -0.0015957148 -0.003949793 -0.00030395968 0.0108284475 0.0010766501 -0.0012237136 0.0034660778 -0.0010978647
