8 100
the 0.0039717895 0.0027765154 0.004900717 -4.50666e-05 -0.004184951 -0.0032638025 0.0049673747 -1.2562663e-05 0.00078221236 0.0009776411 0.0017993641 -0.0028101911 0.0028460457 0.0021820832 0.0019783021 -0.002532845 0.0006850827 -0.0045541595 -0.0005857583 0.0012265595 0.0023206084 0.004915787 0.0024783502 -0.002944238 -0.0043242797 -0.0034615921 -0.0040986286 0.0040505966 0.0003461585 0.002437935 -0.0044363923 0.0042737196 0.003876435 -0.00080313656 -0.0005733891 -0.0046147676 -0.0037468034 -0.0018519253 0.00073365617 0.003442139 0.003929066 0.0027531404 -0.0028166536 0.0027206729 -0.004626728 0.004069379 -0.0030625232 0.0040395414 0.0016175419 -0.004030606 -0.0022826565 -0.0027095112 0.0042787553 -0.003031348 -0.0032721628 0.0036668065 0.00075790856 0.0039747823 -0.0008151562 -0.002571729 0.00021180077 0.0017682477 -0.00423334 0.00040602428 0.0020205 -0.0043980987 0.0009480102 0.004692922 0.0033551354 -0.0010757517 -0.0017978898 0.0015268588 0.00370484 -0.0038269698 -0.0032829316 0.0033705505 0.0028262753 -0.0034242228 0.001076737 0.003669062 -0.0025917497 -0.0032714326 0.00078433164 -8.195358e-05 0.0035610287 0.0037731796 0.00438402 -0.0015975911 -0.0024975643 -0.0010085478 -0.004857015 -0.0034799979 0.0018322478 0.0006894871 -0.0021338717 -0.0047423635 -0.0032817703 0.0033031118 0.00064742065 -0.0042036576
quick -0.0039616274 -0.004079731 -0.0028544543 -0.0016423851 -0.0049627637 0.0042588627 -0.0045822035 0.00023420443 0.004584712 -0.003779171 -0.004723307 -0.0043784385 -0.0029753367 -0.00056864234 -0.00079069607 0.001420495 -0.0047282134 0.0026770416 0.0013096014 0.000953806 -0.004957603 0.0048007416 -0.000884322 -0.004342006 0.0006902566 -0.0035680206 -0.0034649577 0.0015609185 -0.004654772 0.0015226979 -0.0022381009 0.002115629 -0.0005566584 -0.0036361192 -0.0024227954 -0.0023342648 -0.0015608593 -0.0015685811 0.00078245957 -0.00058351556 4.794974e-05 -0.0049791755 0.002379819 0.00046375793 -0.0035609328 -0.0028855961 0.0026250186 -0.0043533654 0.0046044723 0.004019737 0.001169716 0.0024547356 0.0038393675 0.0035282546 0.00048631668 -0.0037834593 0.0043021557 -0.0021115693 0.0009885695 -0.0023886936 -0.0031696076 0.004525767 -0.0029989416 0.0037994182 0.0018276119 0.0001726992 0.0036556532 0.004972978 -0.0021253037 -0.0044278223 0.00040769117 0.003976533 0.0036264108 -0.0041264594 -0.0009203891 0.0018586392 -0.0017825387 -0.0031496692 0.002700268 0.002684644 -0.00015722217 0.0030950815 -0.0039021503 0.004738593 -0.003046302 0.002620534 0.0020505353 0.004887482 9.7379074e-05 0.0029067714 0.0020728162 0.00028482117 -0.0037226293 0.0043928125 -0.0002700011 -0.00036431916 -0.0048281513 0.0013705216 0.0049178046 -0.0016477531
brown -0.004446396 -0.0033532754 0.00033205317 -0.00015673264 0.0048477077 -0.0011657369 0.002001135 -0.004812855 0.0008203015 -5.6917837e-05 0.0017694731 0.0026848551 0.0037430823 -0.003927963 -0.0019656818 -0.002327373 0.001944996 0.004227332 0.0013608553 -0.0025887352 -0.000760773 -0.0016573317 0.0033538917 -0.0021314402 -0.0016665364 -0.00079880806 0.001989681 0.003312136 -0.0036816213 0.0028632346 0.0009993247 0.0005953492 0.001072218 0.001689499 0.0013137189 -0.003379216 0.003732424 -0.004265417 0.0023163524 0.00045546237 -0.0018366566 0.0033990236 0.00017076018 -0.0042834766 0.000844474 0.00074729195 -0.0016761194 -0.00402069 -0.0037537008 -0.0039577927 -0.0049579106 0.0011354216 0.004143147 0.002060852 -0.0016691567 -0.000319405 0.002193554 0.0005915683 -0.0032478333 -0.0029600768 -0.004845945 0.0032932276 0.0013026125 0.0014091004 -0.004247081 -0.0021067383 -0.00033684287 -0.00013119727 -0.004907608 -0.0021357117 -0.0035639287 0.003029725 -0.0011501246 0.000913105 0.0028871126 0.0014257939 0.0025399923 3.649543e-05 0.00037905297 0.0010710243 -0.0010026162 -0.004577321 -0.003937362 -0.00015800279 -0.003835224 0.003958202 0.0010832797 -0.0027721103 0.0018607584 -0.003893539 -0.00029599998 -0.0011412981 -0.0027822424 0.002028255 0.0011317094 0.000205656 -0.004238713 0.004444283 -0.0030959959 -0.00011194752
fox -0.0028313298 -0.0013135668 0.0046095396 0.00083518727 0.0002507096 -0.00062376953 0.0035267114 -0.0042617577 0.0027684104 -0.004214598 0.0006491925 -0.0043119956 0.0010650149 -0.0004151504 -0.0047914623 0.0011410126 0.0034742216 0.0006092223 0.003644631 0.004794386 0.00497576 0.0008145097 0.00023026876 -0.0041536083 0.0045674 2.7693775e-06 0.0019846861 0.0026121037 -0.004924894 0.0048441137 0.0021521843 0.0028940176 0.0014697739 -0.00036745318 -0.0017782236 0.0008384143 -0.0033556651 0.0006139742 0.00066614215 0.004328323 -0.0032049266 -0.00070083875 0.00038796174 0.00171414 -0.0027965629 0.002757258 -0.0030136202 0.00045008972 -0.00040769702 0.00034659935 -0.0007981065 0.004753856 -0.004706511 0.004380596 0.002773892 -0.0007619802 -0.00055020896 -0.001060639 0.002955349 -0.004424246 -2.9427303e-05 -0.0040381597 0.000430951 0.0011963989 -0.0032947988 -0.0018440802 0.0016751855 0.0030102578 -0.0037900605 0.00059138366 0.001926435 0.003064388 0.0032278204 -0.0049770135 -0.0035309477 0.0042583672 -0.0027130942 0.0023001845 0.0026919732 -0.0009638878 -0.004156099 -0.001430351 -0.003434308 0.0030448094 0.0006833471 -0.00028111975 -0.0046370286 -0.0007869585 -0.0025577534 -0.00034052838 -0.00020534932 0.001085474 -0.000988235 0.0020116323 -0.00010607873 0.0037404688 0.0020424705 -0.0012062779 -0.00094351545 -0.004728194
jumped 0.00039990272 -0.004986785 0.0020370923 0.0034102025 0.0046857474 0.0030641179 -0.0015322056 0.0034319332 -0.0027559176 -0.0014172951 0.0029032582 -0.0027606715 -0.0027663019 0.0014840653 -0.0026802283 -0.0003106524 -0.00038115756 0.0003001374 -0.00081410835 0.0047877105 -0.0024317552 0.0029186367 0.0022067798 -0.0013935198 0.0037532272 -0.0034389603 -0.00010065772 0.0044924533 0.0014961484 -0.0029592044 -0.00344374 0.0031861705 -0.0022594514 -0.0011801596 -0.0019263709 0.0006103175 -0.0008679124 -0.002972262 -0.0042202617 -0.00074925576 0.0013845254 0.0025054796 0.001999351 0.0014047589 0.0030320275 -0.0014487172 -0.0030997654 0.0040582432 -0.0048315874 -0.00019504344 0.0011979768 0.002682637 0.004037581 -0.0007127374 -0.004945714 0.0009242422 -0.0011940867 -0.0041103596 0.0029997763 0.0029857776 -0.0045197764 0.0046356106 -0.0027533092 0.004474013 0.0020160144 -0.001453955 0.0035095175 0.0045085293 0.0049998476 -0.0016490922 0.001964025 0.0021039716 -0.0011675581 -0.00017705145 0.0029517654 0.0040973807 5.676591e-05 -0.0031795234 -0.0016444981 0.00345675 -0.0029908805 0.0003174811 -9.695901e-05 0.0031424249 -0.00030554057 0.003682533 -0.0011968083 -0.0011167525 0.00015862513 0.0038763897 -0.0017183045 0.002622127 0.0017232872 -0.0034423126 0.0039215884 -0.00088096975 -0.0032269564 0.003804831 0.0011779678 0.0044555888
over 0.0025671911 0.0020248785 -0.0012018586 -0.0029630447 0.0035327266 -0.0037730213 -0.004230433 0.0012224597 -0.004693324 0.00068285235 -0.0010508539 -0.0032838543 0.0005285799 -0.00018701391 0.0034685135 0.0014714026 0.0043094717 0.0011706946 0.0015513208 0.0033052973 -0.0009987965 -0.004886969 0.004420632 0.001563039 0.004533448 -0.0018803694 0.00040756605 0.0021072533 -0.0027138796 0.004084255 0.0019833704 -0.004288664 -0.0022368238 -0.004281827 -0.0026565387 -0.003215956 -0.004767093 0.004552769 -0.001807609 -0.0007159024 -0.0025730564 0.002588418 -0.0017611078 0.0021951168 -0.0049261423 -0.00046087053 -0.00044098392 -0.003189039 -0.0013403684 0.0047493954 0.0043918067 0.0038300394 -0.0025872658 -0.0015481932 -0.00087943027 0.0027036183 0.001257541 -0.00052498106 0.0036880558 0.0010668526 -0.0049997903 0.0040159337 -0.00038160395 -0.0006936143 0.00090201414 0.0017333465 -0.00092771667 0.00074462936 0.004070252 -0.0034040597 -0.003480667 0.0042485045 0.0047454564 -0.0034945365 -0.0045402288 0.0028930702 0.0028349853 -0.00013756602 0.0025955904 -0.0009721556 -0.0006611113 -0.002426139 0.00017623593 0.004333709 0.0017985981 -0.0032407234 0.0029649197 -0.0029791598 -0.0013650191 -0.0036537421 -0.004925366 -0.0020567293 0.0026261092 0.0014611639 0.0006746367 0.0029231478 0.0015935199 0.0025234828 -0.0031860236 -0.0023506365
lazy 0.0033239392 -0.0004318625 -0.003577679 0.0043368787 -0.0039185677 -0.0012097917 0.0025268442 -0.003786085 0.0039941734 0.0022551818 -0.0035606213 0.0014412527 -0.0033798278 -0.0016596457 -0.0049989615 0.004789708 0.0046024746 0.003877231 0.0025153826 0.0020273156 -0.0028835626 -0.0032597492 -0.004965197 0.0010172715 0.0048826444 0.00049223565 -0.0013869972 0.0011149931 -0.0037564018 -0.0014452499 -0.0021294607 0.0022210684 6.5765016e-05 -0.0019566324 -0.001114826 0.00047744968 0.003155226 -0.0023700902 -0.0042686583 0.000539302 0.004508187 0.00014926239 0.00049717235 0.0046670334 -0.0044887196 -0.0033735388 -0.004174838 -0.0019186236 0.004709006 0.0029279043 -0.0044624065 0.00066604634 -0.003536104 0.004962349 0.00092176464 -0.0028027785 -0.0010264103 0.0012258135 -0.00044235357 -0.003090334 -0.00080535834 0.0031593384 0.003765358 -0.0019566454 -0.00038392766 0.0031935817 0.0018153413 -0.004615635 -0.0041855685 -0.0026871557 0.0027570403 0.0013272319 -4.5241428e-05 -0.0018964382 -0.0032529414 0.0021199763 0.0042007365 -0.0014480198 0.0041517154 0.00268112 -0.0030587704 -0.0021303084 0.0014532328 0.0044943015 -0.0002744253 0.004362818 0.0037055167 -0.0019713845 -0.00023873009 -0.0028583817 0.0032354442 0.0045768577 0.0009184616 0.0013815368 -0.0021327792 0.0005382398 -0.004833988 -0.0033127442 -0.0042846883 0.0007168334
dog -0.0012813484 0.0029923734 0.0013298498 0.0029936873 -0.0020067054 0.0013162753 0.0034572245 0.00028220302 -0.0035259223 -0.0015880968 -0.0024954337 0.0011412792 -0.0019409972 -0.0027142025 0.0034822186 0.001719475 -0.0026158562 0.0033113344 0.0024295778 0.0018427144 -0.004140246 0.0025127698 0.00070975383 -0.002548529 -0.0023786442 -0.0047997343 -0.002893378 0.00068231684 0.0026649632 0.0007268987 -0.004976843 0.0013340982 -0.0012680659 0.0005653897 -0.0013840762 -0.0011378053 -0.0032858758 0.00371568 -0.0031855565 0.00013472784 0.0010032229 -0.0006478254 -0.0015228994 0.0019497575 0.002681792 0.0047412836 -0.0006501465 -0.0019106566 0.0016363446 0.004474119 1.44193755e-05 0.00212818 0.00030560582 0.0021264215 -0.0041115074 0.001499477 -0.0013754425 -0.0026928382 -0.0010094969 -0.0047500613 0.0029825654 0.0022349376 -0.003883908 -0.0014029026 -0.0021405853 0.00071344 -0.0043228706 -0.0032369543 0.0046030404 -0.0004810474 0.0014474312 -0.0043984307 0.00029341682 -0.001123562 -0.0028366984 0.0030728525 -0.000859287 -9.721001e-05 0.004810246 -0.0001751139 -0.0031270392 0.0043179058 -0.0030956115 0.0009505762 -0.0022420406 -0.00037336623 -0.0017420626 0.0045067007 0.0035332444 -0.0041562174 0.00036630756 -0.0016052893 -0.0029322424 0.0039866245 0.0039219395 -0.0003440214 -0.0031085152 -0.002763615 -0.0031501132 -0.00093407073
